#include <math.h>
#include <stdint.h>
#include <limits>
#include <algorithm>

namespace FAST_INFERENCE {

static constexpr double layer_2_weight[3][3][1][32] = {{{{0.0858238935470581, 0.14708280563354492, 0.10713763535022736, 0.019346678629517555, -0.09866315871477127, -0.2405327558517456, 0.20082803070545197, 0.07986178249120712, -0.29180943965911865, 0.18342740833759308, 0.11427845060825348, -0.18523100018501282, 0.16832952201366425, 0.055513568222522736, 0.06968557834625244, 0.2507338225841522, 0.05172174051403999, 0.22729963064193726, -0.04943447187542915, -0.17465974390506744, -0.17109090089797974, 0.08508016914129257, -0.21940110623836517, 0.27865108847618103, 0.17344868183135986, 0.2633502185344696, 0.011146321892738342, 0.1311512291431427, 0.14301633834838867, 0.1174563318490982, 0.27800318598747253, 0.24172891676425934}}, {{-0.0945897102355957, 0.22365018725395203, -0.2080448865890503, -0.0074470629915595055, -0.04181893542408943, -0.30099940299987793, -0.0809473991394043, -0.04522755742073059, -0.2941652834415436, 0.008691392838954926, -0.20084422826766968, -0.16330823302268982, -0.2001217156648636, 0.2272653430700302, 0.017024822533130646, -0.30568981170654297, 0.19951534271240234, 0.1771313101053238, 0.14647488296031952, 0.16032341122627258, 0.06765789538621902, 0.13489294052124023, -0.019402390345931053, 0.02908671461045742, 0.017984427511692047, 0.01684013195335865, -0.24407602846622467, 0.2330218106508255, -0.0032712884712964296, -0.21715916693210602, 0.17435088753700256, -0.038697220385074615}}, {{0.23020026087760925, -0.21471621096134186, -0.31360501050949097, -0.28740575909614563, 0.29296374320983887, -0.14699970185756683, 0.32885804772377014, -0.2659590244293213, 0.025812439620494843, -0.0748392641544342, -0.2026572972536087, 0.16051314771175385, -0.31175169348716736, -0.26237696409225464, -0.28911924362182617, -0.3048771023750305, -0.0926176980137825, -0.05029718205332756, -0.06729046255350113, -0.06646786630153656, 0.12199332565069199, 0.3204260468482971, 0.16373910009860992, 0.2670164704322815, 0.04645995423197746, -0.205819770693779, -0.009011832065880299, 0.2254137247800827, -0.09126023948192596, -0.27372023463249207, 0.29358047246932983, -0.12372004985809326}}}, {{{-0.1739991009235382, 0.1862078160047531, 0.3543967008590698, 0.2608655095100403, 0.008193288929760456, -0.20220160484313965, -0.1251709908246994, 0.10254763811826706, 0.25475114583969116, 0.08058255165815353, -0.30344289541244507, 0.19167590141296387, 0.2283773571252823, 0.1661585569381714, 0.10931804776191711, 0.16599398851394653, -0.2719767987728119, 0.007552183698862791, 0.2193896472454071, -0.276631236076355, -0.1550968736410141, 0.14175979793071747, 0.021761374548077583, 0.1267617791891098, -0.3135918974876404, 0.06995118409395218, -0.08751022815704346, 0.22692541778087616, -0.16564342379570007, 0.18441782891750336, -0.22123919427394867, 0.07444003224372864}}, {{0.2803402543067932, -0.17571772634983063, -0.36000970005989075, 0.23328262567520142, -0.07796544581651688, -0.17583777010440826, 0.09964035451412201, -0.2506689727306366, -0.06201335787773132, -0.12250763922929764, 0.035293497145175934, 0.1107955351471901, 0.24895702302455902, -0.07135690748691559, 0.11718658357858658, 0.1745261698961258, 0.006019168067723513, -0.006155685987323523, 0.3041514456272125, 0.07421494275331497, 0.26082539558410645, 0.1628832221031189, -0.24656762182712555, -0.11050130426883698, 0.061227165162563324, -0.16717296838760376, -0.03950939327478409, -0.2537066638469696, 0.32106080651283264, 0.07092168927192688, 0.006978287361562252, -0.14574207365512848}}, {{0.1322457641363144, -0.2571850121021271, 0.25708845257759094, 0.24134017527103424, 0.11595216393470764, 0.2876821756362915, 0.2750958800315857, 0.09616393595933914, 0.2939235270023346, -0.1358606219291687, -0.12040303647518158, 0.07575102895498276, -0.06518806517124176, -0.06378632038831711, 0.06602219492197037, -0.29534193873405457, 0.27951547503471375, -0.2107742875814438, 0.33628156781196594, 0.1335652768611908, 0.06092964485287666, -0.037866972386837006, -0.37149420380592346, -0.29978111386299133, -0.23199182748794556, 0.026912681758403778, 0.08811338990926743, -0.11733495444059372, -0.21776767075061798, -0.07673876732587814, -0.3700551986694336, -0.09464529156684875}}}, {{{-0.3154970109462738, 0.09018909186124802, -0.11223559081554413, 0.006457064766436815, -0.26655176281929016, -0.28720465302467346, -0.18715381622314453, -0.15839247405529022, 0.10678624361753464, -0.12595760822296143, -0.10302744805812836, 0.10627925395965576, -0.04700459539890289, 0.018494712188839912, 0.03778455778956413, -0.059670910239219666, 0.15918239951133728, 0.011182069778442383, 0.10287453979253769, -0.143869087100029, -0.30020713806152344, 0.22608008980751038, -0.09562260657548904, -0.23255924880504608, 0.12023348361253738, 0.04119636490941048, -0.16599677503108978, -0.09953448176383972, -0.21291516721248627, 0.03158213943243027, -0.05052507296204567, 0.21776603162288666}}, {{-0.3346788287162781, 0.1286003291606903, 0.25151529908180237, 0.1672508716583252, -0.07988839596509933, -0.11868938058614731, -0.36064836382865906, -0.055282581597566605, 0.14107868075370789, -0.10786893963813782, -0.04429769515991211, 0.057816289365291595, 0.09879929572343826, -0.24317604303359985, 0.3178059458732605, 0.37026160955429077, -0.1693192720413208, -0.07713714987039566, -0.021343426778912544, -0.30714231729507446, -0.335526704788208, 0.05963388830423355, 0.30264541506767273, -0.1202743649482727, -0.011780823580920696, 0.056105054914951324, -0.256753146648407, 0.15319925546646118, 0.33303821086883545, 0.022461313754320145, -0.22168543934822083, 0.1289922297000885}}, {{0.2718513011932373, -0.1477022022008896, -0.2296152412891388, 0.3039341866970062, -0.2843608260154724, 0.2956028878688812, -0.324516624212265, -0.16402745246887207, -0.03723766654729843, 0.28075820207595825, 0.30107519030570984, -0.2598225474357605, 0.04251480847597122, -0.1285448968410492, 0.15969668328762054, -0.1062774732708931, 0.27456116676330566, -0.11132783442735672, 0.3015678822994232, 0.31757718324661255, -0.30045774579048157, -0.06787274777889252, 0.05184532701969147, -0.017223535105586052, -0.3047165870666504, 0.14727382361888885, 0.3485682010650635, 0.2988049387931824, -0.2806812524795532, 0.30622604489326477, 0.1867247372865677, -0.172705739736557}}}};
static constexpr double layer_2_bias[32] = {0.25377780199050903, -0.22769565880298615, 0.028222795575857162, 0.28290247917175293, -0.21981044113636017, 0.3708178400993347, -0.3116928040981293, -0.236733540892601, 0.28686827421188354, 0.056818850338459015, 0.20351193845272064, 0.2337980419397354, 0.2757473289966583, -0.30567097663879395, -0.11750244349241257, -0.2593216300010681, 0.11271683126688004, -0.022677656263113022, 0.03927874565124512, -0.21073848009109497, -0.29843300580978394, -0.13922183215618134, 0.18017743527889252, -0.1983627825975418, 0.16457191109657288, 0.145420104265213, 0.12677906453609467, 0.29338333010673523, -0.026488928124308586, 0.07145446538925171, -0.14944039285182953, 0.056103046983480453};
static constexpr double layer_3_bias[32] = {-0.16978806257247925, 0.008915655314922333, 0.16960099339485168, -0.46997296810150146, 0.4647713005542755, 0.39034226536750793, 0.11648592352867126, 0.5936757922172546, -0.1830044686794281, 0.0850486010313034, 0.4496760070323944, -0.17085234820842743, -0.3727371096611023, 0.24193525314331055, -0.4835873544216156, 0.07885578274726868, -0.5491220951080322, -0.017508160322904587, -0.5855399966239929, 0.2593083083629608, 0.5680683255195618, -0.5880645513534546, 0.5246862769126892, 0.09043890237808228, 0.34214967489242554, -0.46165934205055237, 0.2879902422428131, -0.5362896919250488, 0.24788695573806763, -0.31681081652641296, -0.08536532521247864, -0.14775553345680237};
static constexpr double layer_3_scale[32] = {0.026563074439764023, 0.02467338927090168, 0.02880515530705452, 0.012077021412551403, 0.028330819681286812, 0.012654118239879608, 0.022934800013899803, 0.021649636328220367, 0.025863470509648323, 0.05217759311199188, 0.023514006286859512, 0.04035329446196556, 0.030306052416563034, 0.026575956493616104, 0.017311053350567818, 0.026453077793121338, 0.02453579194843769, 0.028243599459528923, 0.00972955022007227, 0.025980807840824127, 0.020122287794947624, 0.012924358248710632, 0.033011943101882935, 0.024173414334654808, 0.0248334351927042, 0.03766991198062897, 0.025146547704935074, 0.016999701038002968, 0.04196721315383911, 0.030907126143574715, 0.028198610991239548, 0.03060358390212059};
static constexpr double layer_6_weight[3][3][32][32] = {{{{-0.010491276159882545, -0.11315877735614777, -0.021673256531357765, 0.06982429325580597, -0.011660518124699593, 0.009089920669794083, -0.01917417161166668, -0.04585447534918785, -0.04453739523887634, 0.09549198299646378, 0.041973795741796494, -0.04476694017648697, 0.03736772760748863, -0.01203940063714981, 0.08376968652009964, -0.06155802309513092, 0.0007020366028882563, 0.043461039662361145, 0.047932058572769165, 0.028879811987280846, -0.02005682699382305, 0.03942587599158287, -0.06281439960002899, -0.013342181220650673, 0.13054892420768738, 0.009621327742934227, -0.13561154901981354, -0.0009079219307750463, -0.05364495888352394, 0.053701333701610565, 0.026761002838611603, -0.07514305412769318}, {-0.010669566690921783, -0.00820124614983797, 0.019933011382818222, -0.015251152217388153, -0.04313226789236069, 0.003707309253513813, 0.059057433158159256, 0.017048196867108345, 0.0075836749747395515, -0.10531901568174362, -0.035878486931324005, -0.005760547239333391, 0.07407359033823013, -0.0002934047079179436, 0.032477639615535736, 0.03145933523774147, 0.06721315532922745, -0.023125505074858665, 0.004876800812780857, 0.07311322540044785, -0.06347926706075668, 0.04957835376262665, -0.02650543674826622, -0.004627040587365627, 0.03779154270887375, -0.03149578347802162, 0.03751154989004135, 0.026526350528001785, -0.01523338072001934, -0.028815118595957756, -0.046795811504125595, -0.03611604496836662}, {0.02494891732931137, -0.017307830974459648, -0.01597367785871029, 0.02278769202530384, -0.08688026666641235, 0.006048037204891443, -0.026721661910414696, 0.03448105603456497, 0.013457036577165127, -0.029425781220197678, 0.03830348700284958, 0.01872309111058712, 0.023376261815428734, -0.031177759170532227, -0.0045819999650120735, -0.010015658102929592, 0.0018997467122972012, -0.030537521466612816, 0.051947761327028275, -0.0107655618339777, -0.022191647440195084, 0.07083825021982193, -0.03573089465498924, 0.06819156557321548, 0.0405803844332695, -0.01885361224412918, -0.06617334485054016, -0.0016782227903604507, 0.026172447949647903, 0.02998441644012928, 0.013144212774932384, 0.011863121762871742}, {-0.047111380845308304, -0.013565674424171448, 0.024333911016583443, 0.01048311311751604, 0.012736674398183823, 0.03513987362384796, -0.03233044967055321, 0.06309252232313156, -0.008432661183178425, 0.007974866777658463, -0.035364095121622086, 0.0336003340780735, -0.0198679156601429, -0.03519995138049126, -0.01924177259206772, 0.06621649861335754, 0.050790272653102875, 0.02591392584145069, 0.04857736453413963, 0.022745374590158463, -0.03352038189768791, -0.036008503288030624, 0.03542812541127205, 0.01091208215802908, 0.01503127720206976, -0.03464779257774353, -0.04956214129924774, -0.01459623221307993, -0.0502634271979332, -0.051568180322647095, -0.05433906614780426, -0.02935696579515934}, {0.0014333261642605066, -0.04571503400802612, -0.11215788871049881, -0.032958440482616425, -0.07712284475564957, 0.07061905413866043, -0.04118146374821663, -0.016407081857323647, -0.07713612914085388, -0.01852463372051716, 0.00541265681385994, -0.012702511623501778, 0.054166872054338455, 0.07529336214065552, -0.017114976420998573, -0.020599059760570526, -0.03469041734933853, -0.036197930574417114, 0.055808521807193756, 0.04680410027503967, 0.014916790649294853, 0.0808386579155922, -0.015390968881547451, 0.0588102787733078, -0.01874959096312523, 0.10380620509386063, -0.05965440720319748, 0.053925201296806335, 0.019659334793686867, -0.018202923238277435, 0.07253153622150421, -0.03424958139657974}, {0.05928418040275574, 0.06475819647312164, 0.039734624326229095, -0.014961125329136848, -0.04471513628959656, 0.020273318514227867, -0.013148307800292969, 0.006922463420778513, 0.0032028823625296354, 6.92906032782048e-05, 0.06076722964644432, 0.020127777010202408, -0.005222942680120468, -0.032768648117780685, 0.10143768787384033, -0.00037723465356975794, -0.03162865340709686, 0.004459596239030361, -0.06865222752094269, 0.039828818291425705, 0.046940308064222336, -0.031397487968206406, -0.13124343752861023, -0.04022124409675598, -0.030210010707378387, 0.053434714674949646, 0.03236456587910652, -0.03803734481334686, 0.0053459336049854755, 0.06604354828596115, -0.011084876023232937, 0.03390126675367355}, {-0.10391803830862045, -0.034941043704748154, -0.029964782297611237, 0.018371906131505966, -4.534682375378907e-05, 0.007876559160649776, -0.02142694965004921, -0.06402039527893066, -0.018940458074212074, -0.01709495484828949, -0.05320816487073898, -0.040600571781396866, -0.040507491677999496, -0.027829639613628387, 0.040094681084156036, -0.014770695939660072, 0.001484268344938755, -0.00797137152403593, 0.027127906680107117, 0.08003212511539459, 0.04931594058871269, 0.04441222548484802, 0.022746492177248, 0.02703225240111351, 0.11402826756238937, 0.004254456609487534, -0.0717829093337059, 0.04982776939868927, 0.06929221749305725, -0.053529299795627594, 0.022145938128232956, 0.017345326021313667}, {-0.06217831373214722, -0.03262701630592346, 0.05242246016860008, -0.03302876278758049, -0.03249600529670715, 0.04407355189323425, -0.06742895394563675, 0.0678272619843483, -0.008297144435346127, -0.046727824956178665, 0.04318719729781151, 0.03201769292354584, 0.0432252399623394, -0.03880425542593002, 0.07214067131280899, 0.022079896181821823, -0.07604916393756866, -0.03570254147052765, -0.06594806909561157, -0.01446999330073595, 0.04485059157013893, -0.027220889925956726, -0.02504088543355465, -0.034953903406858444, -0.06322379410266876, -0.07172840088605881, 0.004763168748468161, -0.007989199832081795, -0.014136109501123428, -0.02173154056072235, -0.016835892572999, 0.06270922720432281}, {-0.016326170414686203, 0.0609913244843483, 0.008711516857147217, -0.07347437739372253, -0.013106831349432468, 0.032549548894166946, 0.001044252305291593, -0.09295068681240082, 0.00044170839828439057, 0.04475761577486992, 0.03576606512069702, 0.015641476958990097, -0.06447621434926987, 0.0350186750292778, 0.08447080105543137, -0.03454307094216347, 0.02041805535554886, -0.02022288739681244, -0.02374131605029106, -0.0601593554019928, 0.001225960091687739, 0.0022659727837890387, -0.003399529028683901, -0.025565264746546745, 0.021426724269986153, 0.08209468424320221, -0.016885504126548767, -0.03442278504371643, -0.021095359697937965, -0.02127373404800892, -0.046319060027599335, 0.04021099582314491}, {0.08396177738904953, 0.07142361253499985, 0.04305301234126091, -0.0366634763777256, 0.017454924061894417, -0.0073090894147753716, -0.024012332782149315, 0.028157606720924377, 0.10605909675359726, 0.010805781930685043, 0.033902429044246674, 0.0045980424620211124, -0.04692738875746727, -0.03229738399386406, 0.018034934997558594, -0.04889537766575813, 0.04222397133708, -0.0476846881210804, 0.008384110406041145, -0.04443705081939697, 0.042290978133678436, 0.001550824148580432, -0.015635019168257713, 0.024734200909733772, 0.0990748330950737, 0.06636018306016922, 0.04607794061303139, 0.016929535195231438, 0.06692991405725479, -0.054514944553375244, -0.03585473448038101, -0.07128732651472092}, {-0.032272301614284515, 0.06178003549575806, 0.04450761154294014, -0.11807145178318024, -0.07573635876178741, -0.03450186178088188, -0.03492884337902069, 0.0019671362824738026, 0.05894070118665695, -0.015600649639964104, -0.02370595745742321, -0.04899447038769722, -0.03182651847600937, 0.06283613294363022, -0.016472527757287025, -0.07898681610822678, -0.012740559875965118, -0.026967955753207207, -0.09301715344190598, -0.10081756114959717, 0.014056206680834293, -0.09663674980401993, -0.0026320212054997683, -0.04013834893703461, -0.031297218054533005, 0.0073961312882602215, 0.09091700613498688, 0.0010926338145509362, -0.04611889645457268, -0.05506206303834915, 0.05437728762626648, 0.015959735959768295}, {0.032952696084976196, 0.06283639371395111, 0.02506077289581299, -0.08858778327703476, 0.007366035133600235, 0.004188328981399536, -0.06405907869338989, -0.004616845399141312, 0.026171738281846046, -0.06923884153366089, -0.056087229400873184, 0.08347093313932419, -0.04483508691191673, 0.003152241697534919, 0.022892922163009644, -0.014572080224752426, 0.06935685127973557, -0.018659541383385658, -0.002707585459575057, 0.0007392524275928736, 0.014326716773211956, -0.017365384846925735, -0.04136396944522858, 0.09650623053312302, 0.059603553265333176, 0.058708902448415756, -0.03814685344696045, 0.012885975651443005, -0.040679290890693665, 0.014242713339626789, -0.0057223825715482235, 0.019098522141575813}, {-0.0042579928413033485, 0.004126053303480148, -0.012337978929281235, 0.019916728138923645, -0.055301692336797714, 0.05898607149720192, 0.06365162879228592, 0.044995274394750595, 0.026929251849651337, -0.029305407777428627, 0.03985532373189926, -0.04820767045021057, -0.07441293448209763, 0.045612022280693054, -0.024713408201932907, 0.025058520957827568, -0.016340985894203186, 0.012666015885770321, 0.011258102022111416, -0.03541122376918793, -0.018567344173789024, 0.0665074810385704, -0.03367334604263306, 0.013036202639341354, 0.003989569842815399, 0.0195819903165102, -0.04209906980395317, 0.07640063017606735, 0.05662398785352707, 0.015595131553709507, -0.03203528746962547, -0.04994053766131401}, {0.03451152890920639, 0.08644113689661026, 0.0574682243168354, 0.017298126593232155, -0.05286584049463272, -0.0036824035923928022, -0.005066209472715855, 0.0719151571393013, -0.007852290757000446, -0.09187792986631393, -0.03273427486419678, 0.002459266921505332, -0.008402603678405285, -0.029743745923042297, 0.06684510409832001, 0.04305468127131462, -0.0429447740316391, 0.006542344111949205, -0.04708777740597725, -0.02233639918267727, 0.03115570731461048, -0.01922539807856083, -0.07205856591463089, 0.04024151340126991, -0.011795380152761936, -0.018065398558974266, 0.07873516529798508, -0.03213466703891754, 0.0115581713616848, 0.016586262732744217, -0.07675765454769135, -0.09005352854728699}, {-0.01964343711733818, -0.01478583738207817, -0.005888238083571196, 0.02036275528371334, -0.005971795879304409, -0.010302694514393806, 0.018931424245238304, 0.003992763347923756, 0.042315706610679626, 0.02696593664586544, -0.005140755791217089, 0.0014287508092820644, 0.006816375069320202, -0.038600075989961624, -0.019220631569623947, 0.02134832926094532, 0.06925376504659653, -0.01070875208824873, 0.0361037515103817, 0.015053031966090202, -0.07082894444465637, -0.003927435260266066, -0.023296717554330826, -0.006741969846189022, -0.03775583207607269, -0.046055667102336884, 0.008736456744372845, -0.02024601399898529, -0.02432597056031227, -0.06369981914758682, -0.06581999361515045, -0.021333280950784683}, {-0.027991291135549545, -0.12469671666622162, 0.03272775560617447, 0.04224096238613129, -0.04283112660050392, 0.07065760344266891, 0.002421450102701783, -0.008136729709804058, -0.04002666473388672, -0.09222394227981567, 0.01271459273993969, -0.056553181260824203, -0.043337851762771606, -0.08179464191198349, -0.01582740806043148, -0.026912933215498924, -0.025634093210101128, 0.0055670104920864105, -0.015159297734498978, 0.08225968480110168, 0.006070371251553297, 0.010998374782502651, 0.07281214743852615, 0.04438693821430206, 0.006176271941512823, -0.03960750624537468, -0.04332102835178375, -0.02468462847173214, 0.03903796523809433, -0.007332048378884792, 0.013067691586911678, 0.06610501557588577}, {0.03432657942175865, -0.03129657357931137, -0.03042900748550892, -0.009106596000492573, 0.019377224147319794, -0.0020762954372912645, 0.05464167892932892, -0.045672349631786346, 0.024963565170764923, -0.02361094206571579, -0.05121677741408348, -0.05074551701545715, 0.018066436052322388, 0.01550602912902832, 0.006716995500028133, -0.02807876281440258, 0.0439409576356411, 0.030708089470863342, -0.018959861248731613, -0.022915953770279884, 0.02439231052994728, -0.03832579776644707, 0.017998557537794113, 0.020883800461888313, 0.054126471281051636, -0.021907640621066093, 0.007727119140326977, 0.03569604456424713, -0.010218198411166668, 0.004779884126037359, 0.0293552428483963, -0.061456046998500824}, {-0.009379995986819267, 0.024733159691095352, 0.00807852391153574, 0.0029239775612950325, 0.01810041442513466, -0.006077018566429615, -0.03401705250144005, 0.0731157660484314, -0.01631624437868595, -0.03975106403231621, -0.0336260162293911, 0.06158145144581795, 0.03742020204663277, -0.07654694467782974, 0.041348252445459366, 0.04457179456949234, 0.006013599224388599, 0.05731671303510666, 0.020968709141016006, 0.012119747698307037, -0.04065420478582382, 0.03657027333974838, -0.056098975241184235, -0.007452127058058977, 0.02362189069390297, -0.046962570399045944, -0.03919273242354393, -0.024372173473238945, -0.017489125952124596, -0.004882431589066982, -0.04728178679943085, -0.08242619782686234}, {-0.0404149554669857, -0.0025245428550988436, 0.04258354380726814, 0.03662632778286934, -0.06649375706911087, -0.02144697867333889, 0.009118993766605854, -0.03629240766167641, 0.0038853962905704975, 0.0167559664696455, -0.024276593700051308, 0.03791501000523567, -0.07172796130180359, -0.06332061439752579, -0.03952812775969505, -0.019045930355787277, -0.023943563923239708, 0.003864834550768137, -0.01579490303993225, 0.016557354480028152, -0.08788508921861649, -0.009711571037769318, 0.04487443342804909, -0.021791893988847733, 0.0706009492278099, -0.017287110909819603, -0.010370546951889992, -0.044276800006628036, -0.03479694947600365, -0.043109260499477386, 0.0023400287609547377, 0.035286542028188705}, {0.06636981666088104, 0.02701900340616703, 0.016819201409816742, 0.032294705510139465, -0.03432140126824379, 0.057188455015420914, 0.00869105476886034, 0.061844825744628906, -0.052109453827142715, 0.08041487634181976, 0.018113920465111732, -0.049318596720695496, 0.05210011079907417, -0.024236591532826424, 0.01993344910442829, -0.0010652720229700208, 0.02292134426534176, 0.03929010033607483, -0.04831628128886223, 0.0331127755343914, -0.026840899139642715, 0.036686934530735016, -0.10013709217309952, -0.027320241555571556, -0.02952270396053791, 0.02783454768359661, -0.10053349286317825, -0.07842108607292175, 0.03746328130364418, 0.09472600370645523, 0.01809455081820488, -0.016446955502033234}, {-0.013146303594112396, -0.04827680438756943, -0.09529349207878113, -0.016145899891853333, -0.00521193677559495, 0.05998433753848076, -0.05122198909521103, -0.04483838006854057, -0.11409042030572891, -0.08442793041467667, -0.06645666062831879, -0.09638778865337372, -0.02160872519016266, 0.09082919359207153, 0.0008268906967714429, -0.004550427198410034, -0.05713820084929466, -0.13469338417053223, -0.06536507606506348, 0.09147027134895325, 0.07005991786718369, 0.012913490645587444, 0.08130757510662079, 0.008998255245387554, 0.06381270289421082, 0.010381129570305347, -0.0026496597565710545, 0.00383384944871068, 0.054292354732751846, -0.04610070958733559, 0.05775035545229912, 0.08558964729309082}, {0.005395351443439722, 0.014899885281920433, 0.07777782529592514, 0.017829198390245438, -0.0367991141974926, 0.017191201448440552, 0.009538332931697369, 0.07054167985916138, -0.032731957733631134, -0.0510774701833725, -0.06308592110872269, -0.03962866961956024, -0.012355301529169083, -0.07669312506914139, -0.05185762420296669, 0.06055598333477974, 0.00785993505269289, -0.019324323162436485, 0.026910020038485527, -0.05735020339488983, -0.08194448798894882, 0.00020493830379564315, -0.015778718516230583, -0.005087452940642834, -0.04988330602645874, 0.005296591203659773, -0.038471151143312454, -0.0196098443120718, 0.01834922842681408, -0.03321372717618942, -0.06503818929195404, -0.0682796984910965}, {-0.013379351235926151, -0.07084085792303085, -0.09510515630245209, -0.07227546721696854, -0.04130179062485695, 0.009002122096717358, -0.011833892203867435, -0.031014053151011467, 0.0804576650261879, -0.04525457322597504, -0.01311633363366127, -0.06606926769018173, -0.00986100547015667, 0.043028417974710464, -0.09787702560424805, -0.12139971554279327, 0.02532176673412323, -0.08298462629318237, -0.039492424577474594, -0.09136266261339188, 0.0751672238111496, 0.046405695378780365, 0.05481494963169098, -0.002855778904631734, 0.03209059685468674, 0.05242709815502167, 0.061030443757772446, 0.01699959859251976, 0.011602026410400867, -0.03572329133749008, 0.1610838919878006, 0.14988121390342712}, {0.01769505999982357, 0.05252019315958023, 0.04449303075671196, -0.0030655290465801954, -0.009596421383321285, -0.05315576493740082, -0.001426535309292376, -0.03420690819621086, 0.04956270381808281, 0.013312705792486668, -0.07149724662303925, -0.02069137990474701, -0.040542975068092346, 0.005915278103202581, -0.03087010234594345, -0.05333447456359863, -0.029911844059824944, -0.056121062487363815, -0.07617141306400299, 0.06533026695251465, 0.023993011564016342, 0.058254633098840714, -0.05599742755293846, -0.017547447234392166, 0.09372087568044662, 0.07281298190355301, 0.04585256054997444, -0.02188011258840561, -0.014268312603235245, -0.028239602223038673, -0.034366484731435776, 0.005349647253751755}, {-0.01604095846414566, -0.042988866567611694, -0.0018126302165910602, 0.027968015521764755, 0.01634843647480011, -0.026855209842324257, -0.024120019748806953, -0.060863837599754333, -0.02435961179435253, -0.05818711221218109, 0.008371700532734394, 0.05794040858745575, 0.07493633776903152, -0.031796351075172424, 0.03110848367214203, 0.01699097268283367, 0.01527346484363079, -0.06985727697610855, 0.003582062665373087, -0.07296626269817352, -0.04026901721954346, 0.0001751581730786711, -0.014685866422951221, 0.06718063354492188, -0.0007617627852596343, 0.05331435054540634, -0.01358181331306696, 0.0349295437335968, 0.03696487098932266, -0.06365452706813812, -0.002224282594397664, 0.04587583243846893}, {0.027814006432890892, 0.04282214120030403, 0.07957866042852402, 0.03305358439683914, 0.03211930766701698, 0.001942377188242972, -0.017867330461740494, 0.03014359064400196, 0.08627446740865707, 0.0036656155716627836, 0.02136370912194252, -0.009663311764597893, 0.0063078259117901325, 0.033622607588768005, 0.043915655463933945, 0.09357728064060211, 0.051676709204912186, 0.007507304660975933, 0.0478900782763958, 0.0029925256967544556, -0.06767838448286057, -0.021634764969348907, 0.015691569074988365, 0.02440236322581768, 0.06297808140516281, 0.047365833073854446, 0.003867978695780039, 0.009735224768519402, 0.03573662042617798, -0.054728344082832336, -0.02807004563510418, -0.022762123495340347}, {0.025177069008350372, -0.013163150288164616, 0.11808287352323532, 0.04217354953289032, -0.04210074245929718, 0.020408939570188522, -0.08782374858856201, 0.01730019971728325, -0.022945107892155647, 0.08699759095907211, -0.018595388159155846, -0.03757888451218605, 0.021026574075222015, -0.02881748229265213, 0.03312840685248375, -0.06876365095376968, -0.04325837641954422, 0.015554842539131641, -0.10644184798002243, 0.035784777253866196, -0.014096252620220184, -0.03954999893903732, -0.09027810394763947, 0.0020466893911361694, -0.05225164443254471, -0.0018580546602606773, -0.004271555691957474, -0.032878678292036057, 0.04752221331000328, 0.021419038996100426, -0.08304490149021149, -0.00812666118144989}, {-0.06890479475259781, -0.07631365954875946, 0.02773774228990078, -0.012194843962788582, 0.019846834242343903, -0.009167642332613468, -0.03862369805574417, 0.022441299632191658, 0.027496477589011192, -0.015888947993516922, 0.011152674444019794, 0.041167303919792175, -0.0437200590968132, -0.03384963795542717, -0.01884777471423149, 0.03269033879041672, 0.03241632133722305, 0.04259291663765907, -0.004985980223864317, 0.062348347157239914, -0.10199935734272003, -0.010146996937692165, 0.02223529852926731, 0.036483943462371826, -0.0014599825954064727, 0.024683887138962746, -0.03560847416520119, 0.0005169939831830561, 0.017674459144473076, -0.022860463708639145, -0.10585401952266693, -0.04383990168571472}, {0.0736052393913269, -0.03960243985056877, 0.005898116622120142, 0.026750870048999786, 0.03303695097565651, -0.0056251538917422295, 0.05581433326005936, 0.008267522789537907, 0.022218583151698112, -0.038845308125019073, -0.023408928886055946, -0.053918786346912384, 0.005222848150879145, -0.02001870982348919, 0.04530506581068039, 0.026325885206460953, -0.04140951484441757, 0.08281460404396057, -0.07024818658828735, -0.006605497095733881, 0.013578051701188087, 0.04249611496925354, -0.08014197647571564, 0.00961226411163807, 0.039764080196619034, -0.03590919449925423, -0.05502641573548317, 0.010765239596366882, -0.005718541331589222, -0.0016955445753410459, -0.052946675568819046, -0.01987481862306595}, {-0.019332600757479668, 0.01023257989436388, -0.02381303161382675, -0.03862115740776062, -0.024576742202043533, 0.058118779212236404, -0.04958008602261543, -0.00018100615125149488, 0.004703309386968613, -0.00010293129889760166, -0.015341470018029213, -0.054428935050964355, 0.015093764290213585, 0.008336618542671204, 0.005480824038386345, 0.032921213656663895, 0.07038534432649612, -0.015433146618306637, 0.07950130105018616, 0.008995295502245426, 0.0022655189968645573, 0.049278054386377335, 0.0851631611585617, 0.03899480774998665, -0.025246936827898026, -0.014511085115373135, -0.011785225011408329, 0.025874340906739235, 0.03940773755311966, -0.029523374512791634, 0.05067615211009979, 0.002543335547670722}, {-0.0979742556810379, -0.0018611415289342403, -0.028411325067281723, -0.0007476928294636309, 0.030718663707375526, 0.0303922388702631, -0.07737705111503601, -0.05130410194396973, 0.012105912901461124, -0.048654548823833466, -0.017323458567261696, 0.011791546829044819, -0.031247714534401894, 0.03313161060214043, 0.03941205143928528, -0.028128979727625847, -0.013303065672516823, -0.08002538979053497, 0.01389534492045641, 0.05102921277284622, 0.028221309185028076, -0.00981699489057064, 0.010002783499658108, 0.01042975578457117, 0.10130725800991058, 0.039160460233688354, -0.030592985451221466, -0.05335118621587753, -0.020938478410243988, 0.015137631446123123, -0.06438305974006653, -0.05575010925531387}, {0.03616175055503845, -0.007928181439638138, 0.09723818302154541, 0.06776925921440125, -0.032214950770139694, 0.06356901675462723, 0.10028515011072159, 0.0572466216981411, 0.013076050207018852, -0.09297104924917221, 0.012137521989643574, -0.0027644350193440914, 0.035011496394872665, -0.07874753326177597, -0.030751066282391548, 0.06361811608076096, 0.056748803704977036, 0.06376462429761887, -0.00793700385838747, -0.02795388363301754, -0.02573627233505249, 0.007935753092169762, -0.021310774609446526, 0.05255487561225891, -0.05996766313910484, -0.02685537375509739, -0.03092201240360737, 0.04831870645284653, 0.005613123998045921, -0.031985241919755936, -0.08333338052034378, -0.07195431739091873}}, {{-0.03412047401070595, -0.05195975676178932, -0.048757873475551605, -0.018831662833690643, -0.052716776728630066, -0.004303565714508295, 0.08372700214385986, -0.01992940530180931, -0.05189719796180725, 0.06112794578075409, 0.07268352806568146, -0.06609834730625153, 0.062496934086084366, -0.033011604100465775, -0.01479671522974968, -0.024077247828245163, -0.048525121062994, -0.0010276095708832145, 0.0032926658168435097, 0.08142326027154922, 0.027398282662034035, 0.06562021374702454, -0.042577240616083145, 0.06448842585086823, 0.10084187984466553, -0.06532799452543259, -0.07762406766414642, -0.01778918318450451, 0.05486549809575081, -0.003003502730280161, -0.0009523055050522089, 0.04559166356921196}, {0.059003084897994995, 0.022673266008496284, 0.0798627957701683, 0.03668277710676193, 0.031010109931230545, 0.061777837574481964, -0.004616375081241131, 0.01842453144490719, 0.011538536287844181, 0.01805875450372696, 0.03299052640795708, 0.009453702718019485, -0.005138630513101816, -0.10441400855779648, 0.007216769270598888, 0.03123159520328045, -0.006221384275704622, 0.07018126547336578, 0.07929940521717072, 0.02351783588528633, -0.039974864572286606, 0.006793119478970766, 0.039085716009140015, 0.057952880859375, -0.05351928994059563, 0.013118231669068336, -0.006703485734760761, 0.043791018426418304, -0.03672774136066437, -0.01756828837096691, -0.024612892419099808, 0.0054616802372038364}, {0.014021234586834908, 0.05237385258078575, 0.04772896692156792, 0.02256784588098526, 0.05868145823478699, 0.06380489468574524, 0.04305095970630646, 0.0010371551616117358, 0.022325314581394196, 0.06273134052753448, 0.02583780139684677, -0.06405659019947052, -0.044084206223487854, -0.07860293239355087, -0.039084989577531815, -0.009609950706362724, 0.025735875591635704, -0.0013070855056867003, 0.04019954055547714, 0.0036817833315581083, -0.048420652747154236, 0.04543685540556908, 0.014860491268336773, 0.07047577947378159, -0.025870049372315407, -0.03647610917687416, -0.05606355518102646, 0.06466750055551529, 0.06846821308135986, -0.03855442628264427, 0.01027117669582367, -0.04555334895849228}, {-0.03624218702316284, 0.0344037190079689, -0.00428953068330884, -0.01472540944814682, -0.01795530878007412, -0.029772914946079254, -0.02739202231168747, -0.07163713127374649, -0.005757133010774851, -0.016842704266309738, 0.04439761862158775, 0.00243348884396255, -0.007090974133461714, 0.009494964964687824, -0.03607364743947983, 0.06361226737499237, -0.011927512474358082, -0.008171633817255497, 0.03731124848127365, 0.05434175580739975, -0.031236961483955383, 0.0525018647313118, 0.039195772260427475, -0.017030568793416023, 0.008363560773432255, 0.023674512282013893, 0.04326942190527916, -0.028356855735182762, -0.044159699231386185, 0.03374147787690163, -0.02673603594303131, -0.03625944256782532}, {-0.03734351694583893, -0.09371213614940643, -0.03632282465696335, 0.09407421946525574, 0.021047865971922874, -0.018789861351251602, -0.021585803478956223, -0.08429322391748428, -0.0632079616189003, -0.0394137017428875, 0.04683241993188858, -0.03556947782635689, 0.009993660263717175, -0.050544723868370056, 0.04289877414703369, -0.014945972710847855, -0.04341068118810654, -0.12018876522779465, 0.04808530956506729, 0.04817458242177963, 0.02564168907701969, 0.04516230896115303, 0.10858434438705444, 0.04473251476883888, -0.020517883822321892, 0.06641954928636551, 0.00270066992379725, 0.02681504189968109, 0.1170605942606926, -0.06375730782747269, 0.06625748425722122, -0.07732793688774109}, {-0.003910203464329243, 0.05129986256361008, -0.0688028410077095, 0.02228158339858055, 0.0523022785782814, -0.004124979022890329, 0.08221174031496048, 0.017748171463608742, -0.04339417442679405, 0.03318729251623154, 0.021100964397192, 0.0030553077813237906, 0.010485506616532803, -0.021823905408382416, -0.039435114711523056, 0.014190303161740303, -0.0450870618224144, 0.06474068760871887, 0.01588895171880722, 0.020616678521037102, 0.002468512626364827, -0.117479108273983, -0.12230265140533447, -0.018572939559817314, -0.0634956955909729, -0.021872684359550476, 0.003153469180688262, -0.04304192215204239, 0.058381978422403336, 0.13095247745513916, -0.017170658335089684, 0.02711706981062889}, {-0.08236555010080338, -0.014644205570220947, 0.015523209236562252, -0.009375135414302349, -0.03742600977420807, 0.03119426779448986, -0.08533182740211487, -0.12223135679960251, -0.00010650974581949413, -0.05575469508767128, -0.03987589851021767, 0.047596726566553116, 0.019946498796343803, 0.002789905061945319, -0.04068867862224579, -0.0589468739926815, 0.058523908257484436, -0.0587182343006134, 0.009957757778465748, 0.056340232491493225, -0.0053330594673752785, 0.05389177426695824, 0.03321137651801109, -0.02175336517393589, 0.03929653391242027, 0.04359237477183342, 0.02223409153521061, 0.02734612114727497, 0.07402043044567108, -0.10519710183143616, 0.09883859008550644, 0.01469254121184349}, {-0.01348003651946783, 0.02035432867705822, 0.03482783958315849, -0.05188863351941109, -0.022816134616732597, 0.048224762082099915, -0.012196230702102184, 0.07796876132488251, -0.11880550533533096, -0.08804358541965485, -0.09089156240224838, -0.02850298210978508, 0.033470429480075836, -0.053498562425374985, -0.005023051053285599, -0.05404142290353775, -0.10443846881389618, -0.012023773975670338, -0.06150522828102112, -0.021063216030597687, -0.04300474748015404, -0.09353753179311752, 0.032224711030721664, -0.10698171705007553, -0.02403898909687996, 0.012825293466448784, 0.0121200205758214, -0.0442662239074707, -0.11018818616867065, -0.00606827437877655, -0.0010618013329803944, 0.0049012633971869946}, {-0.008529447950422764, 0.018828026950359344, -0.03802616894245148, 0.015995517373085022, -0.027914755046367645, 0.0013760848669335246, -0.07680094242095947, -0.027827218174934387, 0.06970339268445969, 0.05217619612812996, 0.03553762659430504, -0.01515896525233984, -0.004111726768314838, 0.030282100662589073, -0.04517229646444321, -0.050212182104587555, -0.009318378753960133, 0.014075384475290775, -0.0188625305891037, 0.02656145580112934, 0.024653231725096703, -0.03800928592681885, -0.014950604178011417, 0.029871555045247078, 0.03754308819770813, 0.07900610566139221, 0.02194024622440338, 0.06228804215788841, 0.01201824564486742, -0.004266699310392141, -0.0696931853890419, 0.0631033405661583}, {0.06527259200811386, 0.1198834627866745, 0.04502803832292557, -0.009897937998175621, 0.039513956755399704, 0.010958505794405937, -0.014093085192143917, 0.04122936353087425, 0.06439664959907532, 0.007110438775271177, 0.02881862409412861, 0.0028296164236962795, 0.003872988745570183, 0.04976407438516617, -0.0583258792757988, -0.020398203283548355, 0.009378124959766865, 0.07707276195287704, -0.023534510284662247, 0.006665593478828669, -0.10052197426557541, -0.0003664883552119136, -0.054604023694992065, 0.019546065479516983, 0.002461950993165374, 0.04045774042606354, -0.03324336186051369, 0.025871695950627327, 0.004631986375898123, 0.06483137607574463, 0.007333229295909405, -0.0727231502532959}, {0.05896787345409393, 0.026752440258860588, 0.04230291768908501, 0.031357765197753906, -0.017367282882332802, 0.040827855467796326, -0.0720001831650734, 0.058539099991321564, 0.009691627696156502, 0.03814215958118439, 0.03784799948334694, -0.03785703703761101, 0.06276736408472061, 0.034231532365083694, 0.0021645971573889256, 0.006653978489339352, -0.0355646014213562, 0.008847813121974468, -0.060616008937358856, -0.015311464667320251, -0.031087534502148628, -0.013227353803813457, -0.05947601795196533, -0.06867961585521698, 0.007659783586859703, 0.07108189910650253, 0.07875220477581024, 0.0039345137774944305, -0.005580191966146231, 0.013496560044586658, -0.03340068459510803, 0.01554596982896328}, {0.007948625832796097, 0.029019523411989212, -0.056851133704185486, -0.006892397999763489, -0.01453395839780569, -0.017713801935315132, -0.07628940790891647, -0.04585596174001694, 0.07451639324426651, 0.08785950392484665, 0.05204693600535393, 0.014468607492744923, -0.0547698475420475, 0.028998879715800285, -0.0031730500049889088, 0.014154884032905102, -0.030322248116135597, 0.02754107303917408, 0.0060765743255615234, 0.0014961115084588528, -0.06067966669797897, -0.024060124531388283, 0.012620330788195133, 0.06333378702402115, 0.03577076271176338, 0.025172369554638863, -0.024142278358340263, 0.05794595181941986, 0.05892116203904152, 0.0074151065200567245, -0.01717805117368698, 0.0015709851868450642}, {0.036079104989767075, -0.04600593447685242, 0.0313466414809227, 0.03526432812213898, -0.07791125774383545, -0.02582579106092453, 0.03143694996833801, -0.05507444962859154, -0.03263694420456886, 0.05250941962003708, -0.012541841715574265, 0.013612160459160805, -0.008249456994235516, -0.016963118687272072, 0.06090505048632622, -0.02070719748735428, 0.031066739931702614, -0.07917013019323349, 0.019798193126916885, -0.02735653519630432, 0.02749795839190483, -0.012716098688542843, -0.006400315556675196, 0.06968431919813156, -0.006063317880034447, 0.018748125061392784, -0.027364399284124374, -0.02332242950797081, -0.04016716405749321, -0.0736648440361023, 0.06895360350608826, -0.03590134158730507}, {0.033302854746580124, 0.07318488508462906, 0.06317111104726791, 0.008467406965792179, 0.048463620245456696, 0.08336073905229568, 0.0382673479616642, 0.05257836729288101, -0.013314567506313324, 0.021526915952563286, 0.05504612624645233, -0.04930100589990616, -0.009699780493974686, 0.011335412040352821, 0.011609100736677647, 0.046992138028144836, -0.016679788008332253, 0.024082159623503685, -0.0904671773314476, -0.006465122103691101, -0.016705140471458435, -0.12280471622943878, -0.055230360478162766, -0.019982224330306053, -0.031173430383205414, 0.06560688465833664, -7.77979294070974e-05, 0.04121517390012741, 0.06486263126134872, 0.044662974774837494, -0.06263657659292221, -0.053715240210294724}, {0.037217479199171066, -0.0048315757885575294, -0.056890975683927536, -0.04806538298726082, -0.0022263238206505775, -0.007792527321726084, -0.006632253993302584, -0.07300761342048645, 0.06640050560235977, 0.04015057533979416, -0.04759753867983818, -0.0031733219511806965, -0.05834006890654564, -0.020519152283668518, 0.05185915157198906, -0.03206614404916763, -0.03622554987668991, 0.018321700394153595, 0.01930215209722519, 0.014644143171608448, 0.009665748104453087, 0.061943620443344116, -0.012870081700384617, 0.046780284494161606, -0.04008995369076729, -0.03787009418010712, -0.03073970414698124, -0.021321315318346024, -0.006274683400988579, 0.040821366012096405, -0.008001304231584072, -0.012261481955647469}, {-0.04484333470463753, -0.10697252303361893, 0.0503564327955246, 0.004573946353048086, -0.004778650123625994, 0.0813431665301323, -0.04348207265138626, -0.042718902230262756, -0.03465898707509041, 0.02001013420522213, -0.03453879430890083, -0.06445299088954926, 0.034056950360536575, -0.04440872371196747, 0.03141196444630623, -0.052744824439287186, -0.006475582718849182, -0.008255455642938614, -0.019587092101573944, 0.06585437059402466, 0.01579492911696434, 0.09003251045942307, 0.09309761226177216, 0.044907696545124054, -0.060152020305395126, -0.009126389399170876, -0.020704906433820724, -0.023648817092180252, 0.011914920061826706, -0.043016381561756134, -0.024995453655719757, 0.0028938238974660635}, {0.05970080569386482, -0.028967158868908882, 0.024756252765655518, 0.021815521642565727, -0.03640846535563469, 0.03979954496026039, 0.044889140874147415, 0.007167518138885498, 0.015658609569072723, 0.058402206748723984, -0.032203979790210724, -0.03558473661541939, -0.026816759258508682, 0.04294847324490547, 0.0023143074940890074, 0.03222590312361717, 0.014635113999247551, -0.05041045323014259, -0.006895817816257477, 0.036832597106695175, -0.03803630545735359, 0.04933812841773033, -0.06603579968214035, -0.0005098228575661778, 0.041239093989133835, -0.05949296057224274, -0.03609044477343559, -0.0035329312086105347, 0.034542813897132874, 0.041584327816963196, -0.05382681265473366, -0.011706070974469185}, {-0.0018403477733954787, 0.0003725052229128778, 0.08872026950120926, 0.018141277134418488, 0.023005198687314987, 0.02479245327413082, -0.03553575277328491, 0.06277164816856384, 0.04134132340550423, -0.02448195219039917, 0.0024934292305260897, 0.06234332546591759, 0.027469074353575706, 0.004907899536192417, 0.013822617009282112, -0.012971038930118084, -0.02777854911983013, 0.03754732012748718, -0.03869324177503586, -0.0622127391397953, -0.03832067549228668, -0.07943140715360641, -0.07528343051671982, -0.06422784179449081, -0.011342868208885193, 0.04567362368106842, 0.03750830888748169, 0.023549798876047134, 0.0030234672594815493, 0.0651078149676323, -0.057551853358745575, -0.04327711835503578}, {-0.03172369301319122, -0.05509649217128754, 0.028681961819529533, 0.010011477395892143, -0.0013340195873752236, 0.010765253566205502, 0.02292235940694809, -0.04405881091952324, -0.018795205280184746, 0.00836477242410183, -0.054331447929143906, -0.01149201299995184, 0.048382192850112915, -0.013534603640437126, 0.04605700820684433, 0.013915330171585083, 0.05177303031086922, 0.01612328365445137, 0.016287729144096375, 0.036990776658058167, -0.06251201033592224, 0.02899848483502865, -0.043683260679244995, -0.0006533048581331968, -0.030487239360809326, -0.03265081346035004, -0.02375844307243824, 0.006202457007020712, 0.03468203544616699, -0.03173922747373581, -0.03477010875940323, -0.02927320823073387}, {0.05905798822641373, -0.016779126599431038, -0.001623838790692389, -0.04240932688117027, 0.02376440539956093, 0.09867526590824127, 0.016321605071425438, -0.0003856972325593233, -0.06603527814149857, 0.086903415620327, 0.011339833028614521, -0.054841648787260056, -0.005754310172051191, -0.051698386669158936, -0.01566082425415516, -0.06153031438589096, -0.053742341697216034, 0.0767640471458435, -0.04641464725136757, 0.03342622146010399, 0.06415922939777374, 0.06871810555458069, -0.08190429210662842, 0.03594670072197914, 0.040620461106300354, -0.08517318218946457, -0.02534259483218193, -0.007630001753568649, 0.057706717401742935, 0.056029677391052246, -0.022523416206240654, 0.00048366611008532345}, {-0.015814131125807762, -0.09434711933135986, -0.03850957006216049, 0.05144665390253067, -0.0509733185172081, 0.07943360507488251, 0.00943702831864357, -0.049171749502420425, -0.05582277104258537, -0.045684557408094406, 0.021651018410921097, -0.050735995173454285, 0.03424832597374916, -0.03172912448644638, -0.04280412197113037, -0.10156029462814331, -0.06780707836151123, -0.09154482930898666, 0.02072666957974434, 0.007038657087832689, 0.00936876330524683, -0.03937109187245369, 0.09470495581626892, -0.0568486787378788, -0.07447297126054764, 0.04484609141945839, 0.01149663794785738, -0.06866006553173065, -0.0017697731964290142, 0.002784309908747673, 0.1675679236650467, -0.017315080389380455}, {0.011896328069269657, -0.023932212963700294, 0.02033265493810177, 0.049874287098646164, 0.061449095606803894, 0.03425911068916321, -0.03175496682524681, -0.04440947249531746, 0.026596495881676674, 0.025446893647313118, -0.050902292132377625, -0.04147448390722275, -0.054397739470005035, -0.048895761370658875, 0.04285721480846405, 0.04184620827436447, 0.037336669862270355, 0.02793360874056816, 0.013284990563988686, 0.002689918503165245, -0.03854767233133316, -0.027823761105537415, -0.057365112006664276, -0.006666850298643112, -0.04482061788439751, 0.026188010349869728, -0.067486472427845, -0.04524994269013405, 0.06849412620067596, 0.0036398558877408504, -0.06596465408802032, -0.049456238746643066}, {-0.02122787944972515, -0.0486772395670414, -0.0692819282412529, -0.09279445558786392, 0.05953696370124817, -0.05726860836148262, -0.07619791477918625, -0.06721824407577515, -0.024879127740859985, 0.050803348422050476, -0.03728112950921059, -0.05407464876770973, -0.0226573683321476, 0.07218953222036362, -0.0742095336318016, -0.051776304841041565, -0.0022343811579048634, -0.061000555753707886, 0.03476141393184662, 0.018863750621676445, -0.013650849461555481, -0.006013374775648117, 0.10379447042942047, 0.022793425247073174, 0.03503958880901337, 0.03946717455983162, 0.08848372101783752, 0.0451577864587307, 0.051058027893304825, -0.04448384791612625, 0.10336074233055115, 0.04676290601491928}, {-0.06976111233234406, 0.002893763594329357, -0.002954206895083189, -0.024327393621206284, -0.003501391503959894, 0.03947947546839714, -0.044078897684812546, -0.06566392630338669, -0.024844296276569366, -0.08981092274188995, 0.03152201697230339, 0.04029480740427971, -0.012212878093123436, 0.025528525933623314, 0.005670567974448204, 0.030311517417430878, 0.020826490595936775, 0.014998684637248516, 0.0629398301243782, 0.0579725056886673, -0.05118611454963684, -0.04020189121365547, -0.03954591974616051, 0.0022043189965188503, 0.0032810564152896404, 0.048142872750759125, 0.05555896461009979, 0.004210218321532011, -0.0053832316771149635, -0.061671268194913864, 0.029793372377753258, -0.03916550800204277}, {0.04407253488898277, -0.03977084159851074, -0.018991002812981606, 0.0586552657186985, -0.07092344760894775, 0.03583866357803345, 0.03607554733753204, -0.0342484787106514, -0.03906971961259842, -0.06312788277864456, 0.008245706558227539, 0.022492947056889534, 0.0384349524974823, -0.08484506607055664, -0.04565407708287239, 0.04918302968144417, 0.022061506286263466, -0.0707361176609993, 0.03254224359989166, -0.02534768171608448, -0.033827465027570724, -0.02730180136859417, 0.09936154633760452, 0.022296225652098656, -0.01314506959170103, 0.00994188990443945, -0.0498368963599205, -0.03280970826745033, 0.002575152087956667, 0.028774507343769073, -0.004951674956828356, 0.004469950217753649}, {-0.024668270722031593, 0.05698716267943382, 0.04155537113547325, -0.03404591977596283, 0.03462030738592148, 0.014627809636294842, 0.04601066932082176, 0.04627315327525139, 0.012930859811604023, 0.04353640601038933, 0.05204203352332115, -0.029312236234545708, 0.011412149295210838, -0.022399861365556717, -0.034988947212696075, -0.01083050575107336, -0.0158611461520195, 0.06465636938810349, 0.013585107401013374, 0.02877645008265972, -0.015464314259588718, 0.06116173788905144, 0.018206149339675903, -0.007755226455628872, -0.06433757394552231, -0.03224879130721092, -0.0471048466861248, -0.04021219164133072, 0.036518748849630356, -0.017815683037042618, 0.032446108758449554, -0.07224772125482559}, {0.07635660469532013, 0.05233035236597061, 0.03548170253634453, 0.048637889325618744, 0.0008135554962791502, 0.009139948524534702, 0.075014129281044, 0.062481045722961426, -0.04967324808239937, 0.08695261925458908, 0.03574984893202782, 0.004786502569913864, 0.03697700798511505, -0.006978980265557766, 0.023131486028432846, 0.04013470560312271, -0.02859744429588318, -0.015003635548055172, -0.04778948053717613, -0.002589491195976734, 0.018577294424176216, -0.04528418555855751, -0.040037672966718674, 0.05095997452735901, -0.01130231749266386, -0.033828068524599075, -0.03159347176551819, 0.07544807344675064, 0.09989649057388306, 0.032113637775182724, -0.06138200685381889, -0.04777974262833595}, {-0.026679113507270813, -0.013196398504078388, -0.0709512010216713, 0.009161216206848621, 0.032394662499427795, -0.03656749799847603, -0.038083989173173904, -0.013474155217409134, 0.013742729090154171, 0.02089223824441433, -0.03506934642791748, -0.0035973123740404844, 0.055886976420879364, 0.0187591053545475, 0.07271658629179001, 0.07177114486694336, -0.017120132222771645, 0.008937761187553406, -0.023852843791246414, 0.03430316597223282, -0.027010319754481316, 0.015184697695076466, -0.0604463629424572, 0.025617200881242752, 0.05251067131757736, -0.04436643794178963, 0.00931540410965681, -0.03641542047262192, 0.025539455935359, -0.00417547719553113, 0.007842344231903553, -0.026691652834415436}, {0.024070389568805695, 0.006655670236796141, 0.022312713786959648, -0.011160161346197128, -0.011394237168133259, 0.01988668367266655, -0.01697503961622715, -0.022506356239318848, 0.022768693044781685, 0.010162534192204475, 0.05144982039928436, -0.04480854421854019, -0.033322397619485855, -0.040987011045217514, 0.03388429805636406, 0.02322312816977501, 0.003982437774538994, 0.006531885825097561, -0.03214491531252861, 0.0777251124382019, 0.011878917925059795, 0.009142930619418621, -0.026261014863848686, 0.038856394588947296, -0.002908519469201565, 0.019536204636096954, -0.007328068371862173, 0.010036798194050789, -0.003962434828281403, 0.0034352943766862154, -0.09515766054391861, -0.0865512490272522}, {0.027516493573784828, 0.0049352445639669895, -0.037433721125125885, -0.0011825071414932609, 0.015845706686377525, -0.02277752012014389, 0.040834538638591766, -0.008795803412795067, 0.020044498145580292, 0.02171606570482254, -0.0453798808157444, -0.07065094262361526, 0.0212227925658226, 0.02600177377462387, 0.0015253365272656083, 0.008268353529274464, 0.010676220990717411, -0.0019712625071406364, 0.061339691281318665, 0.03319813311100006, -0.04182250797748566, 0.02733115665614605, -0.011362211778759956, 0.06860154122114182, 0.020173095166683197, 0.044776152819395065, 0.04626064747571945, -0.006573183927685022, 0.027537299320101738, -0.06958286464214325, -0.032406825572252274, -0.05636174604296684}, {0.023242587223649025, 0.05810864269733429, -0.0709204152226448, 0.07516320049762726, 0.018878187984228134, 0.026589229702949524, 0.015477383509278297, -0.03362701088190079, -0.01837349310517311, 0.01770731993019581, -0.03738145902752876, 0.07682988047599792, 0.0008632165263406932, 0.07810962200164795, -0.07476797699928284, 0.02660541795194149, 0.03134176507592201, -0.042148299515247345, 0.03373368829488754, -0.008437500335276127, -0.075874924659729, -0.007629394065588713, 0.06079329550266266, -0.00030379119561985135, 0.09364590048789978, 0.03860165551304817, -0.02042597159743309, -0.02326611988246441, 0.01705778017640114, -0.05020059645175934, 0.030704615637660027, -0.01852177083492279}, {0.0393436998128891, -0.04266304895281792, -0.04121120274066925, 0.051143571734428406, -0.004186396487057209, 0.0881558284163475, 0.015412413515150547, -0.026735980063676834, -0.061972226947546005, 0.06130855530500412, -0.0027396788354963064, 0.010548857040703297, -0.01809430867433548, -0.05285166576504707, 0.010023310780525208, 0.05518482252955437, 0.06472408026456833, -0.0010748467175289989, -0.017829222604632378, -0.010527266189455986, -0.009288742206990719, 0.007569571956992149, 0.022491902112960815, 0.07158152014017105, 0.04945353791117668, -0.06952092796564102, -0.03873077407479286, 0.02679975889623165, 0.004998160991817713, -0.011552220210433006, -0.014417650178074837, 0.017425738275051117}}, {{-0.07061713188886642, 0.04408469796180725, -0.05688027665019035, 0.00038063840474933386, 0.05096279829740524, -0.003043085103854537, 0.0703289732336998, 0.0025170135777443647, 0.04848017543554306, 0.03184351325035095, -0.020991500467061996, 0.08378903567790985, 0.05714859068393707, 0.022795317694544792, -0.0453658401966095, -0.028914980590343475, 0.09211931377649307, 0.05277063325047493, 0.028793754056096077, 0.006989309098571539, 0.03946082666516304, -0.00465394789353013, 0.010043825022876263, 0.04152051731944084, 0.03749307245016098, -0.0625743418931961, -0.022240597754716873, -0.026845626533031464, -0.03575100749731064, -0.035149842500686646, -0.061204832047224045, 0.08004247397184372}, {0.06349734961986542, 0.025586236268281937, 0.011079507879912853, 0.04849085956811905, 0.02668832801282406, 0.027918841689825058, -0.016059279441833496, 0.006371390540152788, 0.03616843745112419, 0.0656949132680893, 0.004961437080055475, 0.019597481936216354, -0.06037190556526184, -0.04534938931465149, 0.05229242518544197, -0.02119160071015358, 0.01751669868826866, -0.026824528351426125, -0.05551154166460037, 0.009214487858116627, -0.025131117552518845, 0.002176029374822974, -0.04683355987071991, 0.057018354535102844, 0.004098757170140743, -0.021345866844058037, -0.027213482186198235, -0.002012773184105754, -0.014030341990292072, 0.023115284740924835, -0.03626679256558418, 0.049303341656923294}, {-0.012506344355642796, 0.004470958840101957, 0.08024850487709045, 0.02951132319867611, -0.00028448764351196587, -0.008204068057239056, 0.013238796964287758, 0.006881457753479481, -0.031480249017477036, 0.043060462921857834, -0.007634086534380913, -0.02515529841184616, 0.014151870273053646, -0.011018354445695877, -0.03122594766318798, -0.013282586820423603, 0.009097708389163017, -0.0023989719338715076, 0.010518158785998821, 0.044919826090335846, 0.008911237120628357, 0.031712763011455536, -0.035768404603004456, -0.0024818372912704945, -0.03259151801466942, -0.02733895368874073, -0.007009576540440321, 0.04995367303490639, 0.08085498958826065, 0.0392625667154789, 0.02607256919145584, 0.04003429040312767}, {-0.007919120602309704, -0.03052876889705658, -0.024047736078500748, -0.056531764566898346, 0.023831423372030258, -0.05928049609065056, 0.023484403267502785, 0.014954996295273304, -0.011503259651362896, 0.01274885330349207, -0.03569991514086723, 0.035068709403276443, 0.07752145826816559, 0.0163551177829504, -0.02037576213479042, 0.013087267056107521, 0.05024520680308342, 0.0009771028999239206, 0.0492524728178978, 0.03825558349490166, 0.03017609938979149, -0.018552418798208237, 0.014086810871958733, -0.03401485085487366, -0.02905576303601265, -0.011244605295360088, 0.033870961517095566, -0.009214058518409729, -0.017189130187034607, 0.04845203086733818, -0.013045611791312695, 0.001587460981681943}, {-0.01582651399075985, -0.029959216713905334, -0.016215484589338303, -0.011613268405199051, -0.01333160325884819, -0.1190539225935936, 0.007478708401322365, -0.055275529623031616, 0.014818916097283363, -0.024070588871836662, -0.07114773243665695, -0.049268364906311035, 0.18825072050094604, -0.046438463032245636, -0.044338375329971313, -0.05530773848295212, 0.05595412477850914, -0.04632364958524704, 0.06774294376373291, 0.10731838643550873, 0.014199494384229183, -0.02928026020526886, -0.019442584365606308, -0.03681711480021477, -0.04817076399922371, -0.009893490001559258, 0.03955776244401932, 0.009990686550736427, -0.023499878123402596, -0.05272066965699196, 0.12378349900245667, -0.04563119634985924}, {0.053533799946308136, 0.01865273341536522, 0.04964973032474518, -0.06794793903827667, 0.008022931404411793, 0.04579165205359459, 0.08743329346179962, 0.08511100709438324, 0.009471192955970764, 0.026367776095867157, 0.0003306049620732665, -0.08833295851945877, 0.08210521936416626, -0.01378210075199604, -0.023283924907445908, 0.02971249260008335, 0.0279813464730978, 0.012853968888521194, 0.022557398304343224, -0.02965802699327469, 0.0019477419555187225, -0.059994958341121674, -0.06903643161058426, -0.08157472312450409, -0.03427957743406296, -0.027190744876861572, -0.03657478094100952, -0.04716453328728676, 0.02827630192041397, 0.055921077728271484, -0.04309719800949097, 0.037967029958963394}, {-0.016020767390727997, 0.017839038744568825, -0.034598179161548615, 0.02418559417128563, 0.034042663872241974, -0.11722738295793533, -0.0064694760367274284, -0.09129210561513901, 0.008748129941523075, -0.04610244557261467, -0.043143220245838165, 0.07134930044412613, 0.11859393864870071, -0.07287808507680893, -0.015208803117275238, 0.03895924985408783, 0.02863609790802002, -0.03679177910089493, 0.06716547161340714, -0.03288601338863373, 0.04962898790836334, -0.0037699048407375813, 0.04466458782553673, -0.006443111691623926, -0.08209873735904694, 0.003704014467075467, -0.013325191102921963, 0.06650030612945557, 0.043485864996910095, -0.11046182364225388, 0.015382030978798866, 0.011211256496608257}, {0.050099391490221024, -0.02036089263856411, 0.05581624433398247, -0.01810935139656067, -0.004146480932831764, 0.07076402008533478, -0.02556840516626835, -0.0019700273405760527, -0.026322027668356895, 0.004584216978400946, -0.03859800100326538, -0.10572163760662079, -0.08287928253412247, 0.02808757871389389, 0.0013903897488489747, -0.06350942701101303, -0.050195105373859406, -0.08443613350391388, -0.07690511643886566, 0.009992414154112339, 0.043769121170043945, -0.07202769070863724, -0.030477795749902725, -0.09743303805589676, -0.0288633294403553, 0.026542022824287415, 0.06027262285351753, -0.10514110326766968, -0.0007493102457374334, 0.01053228136152029, 0.00516393780708313, -0.03436565399169922}, {-0.05288741737604141, 0.040680255740880966, -0.05603374168276787, -0.02456020936369896, 0.027068831026554108, -0.06113286688923836, 0.013437082059681416, 0.0004003956273663789, 0.020055681467056274, -0.046998899430036545, 0.012775511480867863, -0.0796678364276886, -0.04179228097200394, 0.034590333700180054, -0.08676567673683167, 0.04800965636968613, 0.005413850303739309, 0.07548683881759644, -0.005208889488130808, -0.06390392035245895, -0.017872292548418045, 0.020683053880929947, -0.06797483563423157, 0.010798233561217785, -0.019880546256899834, -0.003978331107646227, -0.023374438285827637, 0.007748719770461321, 0.04672550782561302, -0.049729567021131516, -0.07024136185646057, 0.017012065276503563}, {0.011463641189038754, 0.02812803164124489, 0.02031625062227249, 0.07652261108160019, 0.10735929012298584, 0.07438423484563828, -0.024636082351207733, 0.07992114126682281, 0.001453160191886127, 0.03032921999692917, 0.0670875534415245, 0.00044336222345009446, -0.03259320184588432, 0.07439851015806198, 0.022991366684436798, -0.003670041449368, 0.002166624879464507, 0.03674716129899025, 0.030133549124002457, -0.11934328824281693, -0.05106046050786972, 0.045929308980703354, 0.018005967140197754, 0.055009327828884125, -0.025939038023352623, 0.10605363547801971, -0.08301418274641037, 0.03846409171819687, 0.07837900519371033, 0.035248883068561554, -0.02685863897204399, -0.06650324165821075}, {0.04497439041733742, -0.03654006868600845, 0.04062279686331749, 0.03983025997877121, 0.061356063932180405, 0.030216939747333527, 0.06485550850629807, 0.05500660464167595, -0.033093392848968506, -0.02179192565381527, 0.039434272795915604, -0.056906815618276596, -0.06542527675628662, 0.09813500195741653, 0.012309682555496693, 0.05925076827406883, 0.011667088605463505, 0.10927049070596695, 0.027483031153678894, -0.08330807089805603, -0.03278576210141182, 0.02999482862651348, -0.0249014925211668, -0.006100795231759548, 0.0013383828336372972, 0.04683763533830643, 0.053715579211711884, -0.007438346743583679, -0.015408518724143505, 0.012331798672676086, 0.0009482119348831475, 0.01676238141953945}, {0.02054598182439804, 0.03067171201109886, -0.056892286986112595, -0.011222016997635365, -0.04031796380877495, -0.09094510972499847, -0.02925756573677063, 0.05590059235692024, 0.0894320085644722, 0.0419979989528656, 0.05971968546509743, 0.010065838694572449, -0.027487976476550102, 0.04359797388315201, -0.029451921582221985, 0.018887877464294434, 0.03678453341126442, 0.035887639969587326, 0.07398457080125809, -0.0227955412119627, -0.03682760149240494, 0.05059479922056198, -0.04065573960542679, -0.002694364171475172, -0.022491637617349625, 0.02143469825387001, 0.04100527614355087, 0.059186987578868866, -0.0018811821937561035, -0.007963052950799465, -0.05573626235127449, -0.04569019749760628}, {-0.04752158746123314, -0.00395928556099534, 0.023608915507793427, -0.06817630678415298, -0.05358686298131943, -0.0349232517182827, 0.024570342153310776, -0.028776802122592926, -0.036674220114946365, 0.06131713464856148, -0.06260941177606583, 0.04846760258078575, -0.008382673375308514, -0.07223688066005707, -0.004740692675113678, 0.019925782456994057, -0.03460584580898285, -0.054619792848825455, -0.01797669567167759, -0.024333825334906578, 0.03726732358336449, -0.012206313200294971, 0.014990475960075855, 0.037422288209199905, 0.017797153443098068, -0.03972206637263298, 0.03684704005718231, -0.010921193286776543, 0.05671929568052292, -0.01574348658323288, -0.01779087260365486, -0.029330193996429443}, {0.024323420599102974, -0.0007111841696314514, 0.027746109291911125, 0.05980957671999931, 0.0868913009762764, 0.06237852945923805, 0.07444176077842712, 0.0035199541598558426, -0.06401706486940384, -0.014057157561182976, -0.021079301834106445, 0.02265244536101818, -0.05681362375617027, 0.012690164148807526, 0.06135683134198189, -0.051190100610256195, 8.573071681894362e-05, 0.020956870168447495, -0.1357690989971161, -0.08877641707658768, 0.024373900145292282, -0.07535776495933533, -0.06504138559103012, 0.0018665065290406346, 0.02327735722064972, 0.09771622717380524, -0.041652120649814606, -0.011389633640646935, 0.08690834045410156, -0.018748249858617783, 0.04719599336385727, -0.030911708250641823}, {0.04070296511054039, -0.02380046807229519, -0.05471963807940483, 0.0014115439262241125, 0.06785349547863007, -0.05229770764708519, -0.03818073868751526, -0.06430017948150635, 0.04007937014102936, 0.03988441079854965, 0.03445137292146683, -0.043925393372774124, 0.058972280472517014, -0.02472992055118084, -0.02364020235836506, 0.0592440664768219, 0.01775767281651497, 0.05393308401107788, 0.04963283985853195, 0.04440382868051529, -0.04815297573804855, -0.009529216215014458, 0.011769291013479233, 0.009960230439901352, -0.04127529636025429, -0.035313867032527924, -0.035391733050346375, -0.017820969223976135, 0.0278752613812685, 0.04729588329792023, -0.031740568578243256, 0.03978729993104935}, {0.041351594030857086, -0.022453153505921364, -0.004371657967567444, -0.0820712298154831, 0.02585679478943348, 0.03168511763215065, 0.02878521755337715, -0.005829328205436468, 0.014556046575307846, 0.01371625903993845, 0.01064695231616497, -0.021351123228669167, 0.013751406222581863, -0.0755147933959961, 0.01760154403746128, 0.020868968218564987, 0.03694397583603859, -0.027460429817438126, -0.023642724379897118, 0.0009699182701297104, -0.02703085169196129, 0.049578212201595306, 0.022924162447452545, 0.041703835129737854, -0.03040039911866188, 0.028305429965257645, -0.010769165121018887, -0.05814709886908531, 0.07938585430383682, -0.031725022941827774, -0.04971421882510185, 0.02530573308467865}, {-0.06000113859772682, 0.06359340995550156, -0.09748847037553787, -0.020639199763536453, 0.09167744964361191, -0.035345934331417084, 0.022404152899980545, -0.04670461639761925, -0.044820915907621384, -0.03919605538249016, -0.03803189471364021, 0.006951057352125645, 0.053216297179460526, 0.05200624093413353, -0.018348030745983124, 0.0010526950936764479, 0.057126302272081375, 0.0012307055294513702, 0.05699210613965988, -0.060827672481536865, 0.03263663500547409, 0.03644486144185066, -0.06210430711507797, -0.039837174117565155, 0.038023799657821655, -0.01168013270944357, -0.04481656476855278, 0.047379374504089355, 0.0362146757543087, 0.04193495586514473, -0.07991962879896164, 0.04403110221028328}, {-0.01353534683585167, 0.03366719186306, -0.014860709197819233, 0.07593455910682678, -0.0036919673439115286, -0.028655648231506348, 0.003036885056644678, 0.03371833637356758, 0.016726691275835037, 0.025171414017677307, 0.05810462310910225, 0.016468891873955727, 0.011807369999587536, -0.0006919997977092862, 0.006719663739204407, -0.02720860205590725, -0.016290508210659027, 0.02537713386118412, 0.008578892797231674, -0.04646776244044304, -0.007418839726597071, -0.011966224759817123, -0.06638187915086746, -0.045755285769701004, 0.0038924128748476505, 0.08078636974096298, 0.010433812625706196, 0.06907281279563904, -0.005641351919621229, 0.038588766008615494, 0.05183779075741768, -0.052121881395578384}, {-0.02502475120127201, 0.04849965497851372, -0.05914358049631119, -0.04703236371278763, 0.04976751282811165, -0.0007070383289828897, -0.04226451367139816, 0.03691655024886131, 0.008155782707035542, 0.05451074615120888, 0.020085101947188377, 0.03474701568484306, 0.0266566164791584, -0.05065206065773964, 0.023711321875452995, -0.03887879103422165, 0.05148348584771156, 0.04929380118846893, -2.5640343665145338e-05, -0.006470686290413141, -0.02100614830851555, 0.0019130706787109375, -0.045540835708379745, 0.01895955018699169, 0.07131076604127884, -0.011079421266913414, -0.008316107094287872, 0.052165109664201736, -0.0427975058555603, 0.041913826018571854, -0.021491052582859993, -0.05414352938532829}, {0.08908026665449142, 0.05858820676803589, -0.0028982770163565874, -0.07199078798294067, -0.015941601246595383, 0.026376886293292046, -0.004399735946208239, -0.022399665787816048, -0.0782892033457756, -0.029134372249245644, 0.0012004495365545154, -0.01603776402771473, 0.056396953761577606, 0.024003883823752403, 0.03200788050889969, 0.024832649156451225, 0.07092040032148361, 0.06511029601097107, 0.027764448896050453, 0.017304563894867897, -0.020720690488815308, 0.10298513621091843, -0.04626394435763359, -0.04519932344555855, -0.029904698953032494, -0.08388236910104752, -0.03714291378855705, -0.009248401038348675, 0.047411538660526276, 0.01593943126499653, -0.08407693356275558, 0.09865964204072952}, {-0.04829839989542961, -0.16826263070106506, -0.011636080220341682, 0.02505597099661827, -0.04547026753425598, 0.006287288852035999, 0.03683601692318916, -0.03896548971533775, 0.016702771186828613, -0.06441228836774826, -0.03244449198246002, -0.11148882657289505, 0.06314998120069504, -0.11976489424705505, -0.023105883970856667, 0.008247146382927895, -0.019464440643787384, -0.10716752707958221, -0.017888914793729782, -0.022500235587358475, 0.0208270363509655, -0.05663760378956795, 0.08753985166549683, -0.0911637395620346, -0.028170136734843254, 0.08981353789567947, 0.05180174112319946, -0.013332592323422432, 0.03974311053752899, -0.05420424044132233, 0.11182178556919098, -0.07598840445280075}, {-0.004618810955435038, -0.021209493279457092, -0.05887756496667862, 0.030826661735773087, 0.026799991726875305, -0.0616530179977417, -0.026042724028229713, 0.013854451477527618, -0.06500467658042908, 0.04864555224776268, -0.045661695301532745, 0.016992488875985146, 0.031173143535852432, 0.010875701904296875, -0.031326714903116226, 0.05912468582391739, 0.027769040316343307, 0.05933878570795059, -0.0002847165451385081, -0.051734037697315216, -0.04357702285051346, -0.06885357946157455, 0.003675089916214347, 0.025241432711482048, -0.009302480146288872, -0.08259853720664978, -0.09094153344631195, -0.036805033683776855, 0.07166680693626404, 0.018735526129603386, 0.022293666377663612, -0.03615172952413559}, {-0.01996895857155323, -0.067525215446949, 0.01908744126558304, -0.08986884355545044, -0.02403874881565571, -0.1000545397400856, -0.046646296977996826, -0.050013694912195206, -0.02358255349099636, 0.039672475308179855, 0.003427764866501093, -0.04766138270497322, -0.06494632363319397, 0.07824435830116272, -0.08241699635982513, -0.016777178272604942, 0.00407148664817214, -0.008478939533233643, -0.022852247580885887, 0.07724706828594208, -0.013521517626941204, -0.012412292882800102, 0.013602172955870628, 0.048239387571811676, 0.04199880361557007, 0.13423390686511993, 0.09654655307531357, -0.0032358774915337563, -0.011737051419913769, 0.03457142040133476, 0.08236070722341537, 0.010353625752031803}, {0.01973698101937771, 0.08054110407829285, -0.06831764429807663, 0.07071827352046967, -0.015918482095003128, -0.0034269492607563734, -0.01235883217304945, -0.10089103132486343, 0.07686392962932587, -0.04782578721642494, 0.019669653847813606, -0.0021821646951138973, 0.06134621426463127, 0.055173810571432114, 0.00424864050000906, 0.07419954240322113, -0.03647127375006676, -0.04723293334245682, 0.019278405234217644, 0.028763851150870323, -0.03245774284005165, -0.10524079203605652, -0.0652838721871376, -0.03155871108174324, 0.0054858666844666, 0.0842612236738205, 0.015748845413327217, 0.0024559616576880217, 0.005206826608628035, -0.015399821102619171, 0.033229246735572815, -0.10607383400201797}, {0.03613929823040962, -0.09403655678033829, -0.02608182094991207, -0.0186232328414917, -0.0035782328341156244, -0.06827535480260849, 0.011330044828355312, 0.0007612480549141765, -0.0284323301166296, 0.05820588394999504, 0.034770429134368896, -0.05920702591538429, 0.036229681223630905, -0.06332026422023773, -0.01397769246250391, 0.0214224960654974, -0.0012370680924504995, -0.023256324231624603, -0.004418947268277407, 0.0029465872794389725, -0.019405405968427658, -0.05572335422039032, 0.030845176428556442, 0.052191849797964096, -0.08819896727800369, -0.03326784446835518, -0.024694951251149178, 0.027619607746601105, -0.020287586376070976, 0.005930834449827671, 0.07154090702533722, 0.05455368757247925}, {-0.01049337349832058, -0.05148909240961075, -0.043714117258787155, -0.043413739651441574, 0.03607800230383873, -0.0008700806647539139, -0.0210399366915226, 0.0075592342764139175, -0.0360071137547493, -0.043851338326931, -0.012909190729260445, 0.03861439973115921, 0.027153249830007553, 0.04235813766717911, 0.05195911228656769, -0.00061187450774014, -0.02072213590145111, 0.05359086021780968, -0.020243262872099876, 0.02924071066081524, -0.06314397603273392, 0.0400833934545517, -0.006173765752464533, -0.023153143003582954, -0.0032676681876182556, 0.029997574165463448, 0.0006848612101748586, -0.03646012768149376, 0.04076068848371506, -0.02012508176267147, -0.04588177800178528, 0.0160516407340765}, {0.03095415234565735, -0.018137330189347267, 0.009778794832527637, -0.04062448814511299, 0.04557369276881218, 0.006972729694098234, 0.06338181346654892, 0.00910208374261856, 0.0030984750483185053, 0.07131988555192947, 0.018157631158828735, 0.0018120695604011416, -0.06555647403001785, 0.1251220554113388, 0.04617137461900711, -0.012288272380828857, -0.01882205717265606, 0.10039299726486206, 0.0071189249865710735, -0.050951216369867325, 0.06819367408752441, 0.07756687700748444, 0.014638407155871391, -0.030365539714694023, -0.06826042383909225, -0.05185803771018982, -0.10137618333101273, 0.06141718104481697, -0.041957009583711624, 0.09848013520240784, -0.043912649154663086, 0.05512012168765068}, {-0.045575615018606186, 0.010188414715230465, -0.0008806146215647459, 0.033066004514694214, -0.01633116602897644, -0.08175790309906006, -0.029485531151294708, -0.007628703955560923, 0.02622622810304165, 0.00586987379938364, 0.03128046914935112, 0.006010939832776785, 0.08272561430931091, 0.025957325473427773, 0.06435869634151459, 0.08224910497665405, 0.009857434779405594, -0.032292310148477554, 0.04925314337015152, 0.0355985201895237, -0.02706523984670639, -0.002362973755225539, -0.07452809065580368, -0.033526383340358734, 0.034989453852176666, 0.020107511430978775, -0.07039537280797958, 0.06050553172826767, 0.08416386693716049, 0.030616166070103645, -0.02401421032845974, -0.04060790687799454}, {0.10920660942792892, -0.008395773358643055, 0.010846861638128757, 0.005708035081624985, 0.042581021785736084, 0.029140044003725052, -0.02349877543747425, -0.0634511411190033, 0.08390188217163086, 0.03504133224487305, 0.05742562189698219, 0.015652954578399658, -0.04664650931954384, -0.017005644738674164, 0.0789424404501915, 0.030624037608504295, 0.039963677525520325, 0.04536951333284378, -0.12102378904819489, 0.06957555562257767, -0.0468287393450737, 0.05429719015955925, -0.07203620672225952, 0.08901084959506989, 0.008970696479082108, -0.001908800913952291, -0.025145400315523148, 0.026549814268946648, -0.001958013977855444, 0.012691257521510124, -0.019246211275458336, 0.0036097776610404253}, {0.04481557384133339, -0.06627000868320465, -0.0710185170173645, -0.042145103216171265, -0.031317088752985, 0.001483533880673349, -0.08601953089237213, 0.05750512704253197, 0.022901825606822968, -0.022584805265069008, -0.001322041847743094, -0.00015863629232626408, 0.0030697688926011324, -0.03854195028543472, -0.016976248472929, -0.017855064943432808, 0.0012998533202335238, 0.02777918614447117, 0.002226586453616619, 0.024275969713926315, -0.027632128447294235, 0.06077829748392105, -0.06800417602062225, 0.07723365724086761, 0.02258956804871559, -0.033451128751039505, -0.04353002458810806, -0.013006854802370071, -0.03824949264526367, -0.02616025321185589, -0.07292748242616653, 0.04168294370174408}, {-0.08043596893548965, 0.006947812624275684, -0.008637472055852413, 0.056761011481285095, 0.03978462144732475, -0.028786638751626015, -0.028503796085715294, -0.020750369876623154, -0.013605219312012196, -0.002658841200172901, -0.0007129519362933934, 0.0984971672296524, -0.006602439098060131, 0.07516056299209595, -0.039975669234991074, 0.016004668548703194, -0.007763899862766266, 0.03219737485051155, -0.013660802505910397, 0.023575708270072937, -0.021804431453347206, -0.030052948743104935, 0.03641120344400406, 0.013458505272865295, -0.06338285654783249, 0.0628872811794281, -0.02434655837714672, -0.027028635144233704, 0.036185383796691895, -0.07774289697408676, 0.06433600187301636, -0.09896134585142136}, {0.061739400029182434, 0.0037698696833103895, 0.04416634514927864, 0.001672065001912415, -0.056574538350105286, 0.05158746987581253, 0.0020891674794256687, -0.012200677767395973, 0.00830309558659792, 0.06640121340751648, -0.04101579263806343, 0.04304658994078636, 0.03330233693122864, -0.06932192295789719, 0.07326950132846832, 0.036221470683813095, -0.03046693094074726, -0.0667874738574028, 0.027040841057896614, 0.005327329505234957, 0.057921163737773895, 0.0036363163962960243, 0.049951307475566864, 0.06292724609375, -0.031443316489458084, 0.02597380429506302, -0.06399805098772049, 0.06479980051517487, 0.07687291502952576, -0.015922335907816887, -0.04233298450708389, -0.03784138709306717}}}, {{{0.03759649023413658, -0.04279252141714096, -0.08882825076580048, 0.08589783310890198, 0.0711836963891983, 0.050642699003219604, -0.05964720621705055, -0.010730614885687828, -0.02969626523554325, 0.05945798009634018, 0.00636739656329155, 0.08065276592969894, 0.017444051802158356, -0.028615495190024376, -0.007507575210183859, 0.046087171882390976, 0.05347364768385887, -0.01243994478136301, -0.017888126894831657, 0.08031123131513596, -0.029561173170804977, -0.04895729944109917, -0.022487813606858253, 0.06381630152463913, 0.04692543298006058, -0.07524621486663818, -0.0038949805311858654, -0.026343705132603645, 0.001436747726984322, 0.06151394173502922, -0.06671138107776642, -0.0035501462407410145}, {0.019072605296969414, -0.010717535391449928, 0.06104310229420662, -0.08658115565776825, -0.001326311263255775, 0.05566290766000748, 0.04479553550481796, 0.03339776024222374, -0.023995183408260345, -0.10532083362340927, -0.009978112764656544, -0.012723015621304512, 0.012284263968467712, -0.0843496322631836, 0.006805012468248606, 0.01047749724239111, -0.048321448266506195, 0.029898015782237053, -0.0024139955639839172, 0.025897016748785973, 0.008952345699071884, -0.020791353657841682, -0.0040773614309728146, 0.062040429562330246, -0.03510616347193718, -0.022580541670322418, 0.030173655599355698, 0.04567547142505646, -0.019831456243991852, 0.0402735136449337, -0.07120922952890396, 0.01899266429245472}, {0.052479807287454605, 0.03868831321597099, 0.0686829537153244, 0.04644269123673439, 0.03778668865561485, 0.014245331287384033, 0.05467765033245087, -0.030921608209609985, 0.03126310557126999, -0.01517791859805584, -0.053373340517282486, 0.053434379398822784, 0.0416046679019928, 0.017075343057513237, -0.016881000250577927, 0.02878640778362751, -0.05171005800366402, 0.01703246869146824, -0.045625414699316025, -0.03265008330345154, 0.0018543137703090906, 0.0032123562414199114, 0.0026782730128616095, 0.0005026112776249647, -0.02759905345737934, -0.04331303760409355, -0.012318060733377934, 0.030796291306614876, 0.05887490138411522, 0.006872985512018204, -0.004017360974103212, -0.024815620854496956}, {0.019647665321826935, 0.03749324008822441, -0.023557187989354134, 0.05152524635195732, -0.008844547905027866, -0.008185261860489845, 0.02136687934398651, -0.021605147048830986, -0.027851562947034836, 0.018550675362348557, -0.0017898204969242215, -0.016795547679066658, -0.028671659529209137, -0.006731406319886446, -0.030397551134228706, 0.05848436430096626, 0.03940747678279877, -0.029202207922935486, 0.03425676375627518, -0.023701708763837814, 0.0034759973641484976, -0.016380082815885544, 0.0321507453918457, 0.005621868185698986, 0.05399083346128464, 5.6973738537635654e-05, -0.028869615867733955, 0.01021321676671505, -0.037688110023736954, 0.012055418454110622, 0.01759038120508194, 0.0001545970735605806}, {-0.0525587722659111, -0.030925581231713295, -0.01663934625685215, 0.10541078448295593, 0.01119906920939684, -0.0385001040995121, -0.011168977245688438, 0.034238312393426895, -0.03627992421388626, -0.019003158435225487, 0.020490016788244247, 0.05480261519551277, 0.10028613358736038, -0.04083303362131119, -0.018094243481755257, -0.04310750961303711, 0.0012067530769854784, -0.028862865641713142, 0.03875761479139328, 0.023980319499969482, -0.10500871390104294, 0.03393648937344551, -0.006219116039574146, 0.05132026970386505, 0.028820542618632317, -0.035787712782621384, -0.005331289488822222, 0.02426617033779621, -0.0377686507999897, 0.009246069937944412, 0.00044160810648463666, 0.018394874408841133}, {-0.009891967289149761, 0.03014274500310421, -0.0065378593280911446, 0.0032302378676831722, 0.046119324862957, -0.02006380632519722, -0.05250009894371033, 0.05212913453578949, 0.026265079155564308, 0.030684499070048332, 0.02250272035598755, -0.05665529891848564, -0.04143979772925377, -0.01514407992362976, -0.012806355953216553, -0.08986685425043106, -0.09633111953735352, -0.037686169147491455, -0.07123309373855591, 0.03839017450809479, 0.03634699061512947, -0.028204865753650665, -0.030863294377923012, -0.041385944932699203, 0.04234422743320465, 0.0007075292523950338, -0.01848917081952095, -0.011163908056914806, -0.05298348516225815, 0.016616880893707275, -0.04192574322223663, -0.012698515318334103}, {-0.004778007976710796, -0.07025858759880066, -0.05126539245247841, 0.112009696662426, 0.012361772358417511, -0.03557254746556282, -0.07469605654478073, -0.06848134845495224, 0.02858095057308674, 0.008275412954390049, 0.024899115785956383, -0.022971261292696, -0.02358967810869217, -0.014188542030751705, -0.02209707535803318, -0.018505355343222618, -0.029352741315960884, -0.0007254080264829099, 0.08947956562042236, 0.011843868531286716, -0.05737421289086342, 0.004712373483926058, 0.043150607496500015, -0.03555239737033844, 0.006744834594428539, 0.0019088538829237223, 0.01965273916721344, 0.05011674389243126, 0.012837826274335384, -0.04073921591043472, 0.018595028668642044, 0.04351871460676193}, {-0.0788041427731514, 0.02914905548095703, 0.034954898059368134, -0.03786921128630638, -0.11486724019050598, 0.055338822305202484, -0.03584232181310654, 0.06963231414556503, -0.012005990371108055, -0.01701258309185505, -0.00717957504093647, -0.02431107684969902, 0.01211901567876339, -0.05818590894341469, 0.04983193054795265, -0.013655479066073895, 0.024143142625689507, -0.05010450631380081, -0.019355187192559242, 0.007850482128560543, -0.025289667770266533, 0.019047388806939125, -0.014263100922107697, -0.10296528786420822, -0.05645652487874031, -0.047175172716379166, -0.06363631784915924, -0.11024528741836548, -0.0517512746155262, 0.05492342635989189, -0.025500861927866936, -0.02015618234872818}, {-0.08040742576122284, 0.011808726005256176, -0.03169936686754227, -0.07069170475006104, 0.08823823183774948, -0.04141866788268089, -0.0346066989004612, -0.017657216638326645, -0.01854870095849037, -0.0067769428715109825, -0.07541617751121521, 0.008331390097737312, -0.02333584427833557, -0.03237243741750717, 0.00228279922157526, -0.007841814309358597, 0.023259999230504036, -0.019454553723335266, -0.024600697681307793, 0.01989906281232834, 0.02141164429485798, -0.04012105241417885, -0.0165623240172863, -0.029164116829633713, 0.029856737703084946, 0.05086603760719299, 0.019991841167211533, 0.03288732096552849, 0.11581398546695709, -0.00472237030044198, -0.02971838414669037, 0.046368662267923355}, {0.04302903264760971, -0.003010531421750784, 0.015309732407331467, -0.08494018018245697, 0.03830303996801376, 0.016901874914765358, 0.006524377968162298, 0.011691638268530369, 0.03699479624629021, -0.034272029995918274, -0.0012912495294585824, -0.0018339339876547456, -0.03653838485479355, 0.035448841750621796, 0.04794680327177048, -0.026807289570569992, -0.03600969910621643, -0.024274466559290886, 0.025911271572113037, -0.025429466739296913, 0.13246096670627594, 0.056166425347328186, 0.04554227739572525, -0.002637970494106412, 0.05037343502044678, -0.027417387813329697, 0.046774305403232574, -0.051081955432891846, 0.11120409518480301, 0.05304725468158722, -0.01294689904898405, -0.0493825227022171}, {-0.11303815245628357, -0.046085257083177567, -0.05117470771074295, -0.06061830744147301, -0.01335889007896185, 0.05062597244977951, -0.009086251258850098, -0.0239438284188509, -0.10029222816228867, 0.014021958224475384, -0.05295661464333534, -0.102828748524189, 0.040402427315711975, 0.012749332003295422, 0.03279004618525505, -0.12147732079029083, -0.09956217557191849, -0.0820256918668747, -0.02855841815471649, -0.014131058007478714, 0.11156263202428818, 0.0694449171423912, 0.017050573602318764, -0.12533389031887054, -0.03063884750008583, 0.031014544889330864, 0.04188113287091255, -0.057308461517095566, 0.10312823951244354, 0.03300807252526283, 0.09533379971981049, 0.02470812387764454}, {-0.04426376894116402, 0.02105824276804924, 0.05002664029598236, -0.0921429842710495, -0.0295603945851326, -0.024912375956773758, 0.04802930727601051, -0.01566476933658123, -0.018005307763814926, -0.027123913168907166, -0.08503250777721405, 0.027034543454647064, 0.02711803838610649, 0.06461197137832642, 0.0005327677936293185, 0.02416672371327877, -0.061441224068403244, 0.043710894882678986, -0.02856685034930706, 0.027828209102153778, 0.0301214512437582, 0.02954716421663761, 0.032860539853572845, 0.032618340104818344, -0.01572253741323948, 0.005944391712546349, 0.033362068235874176, 0.05758923292160034, 0.015298810787498951, -0.019873864948749542, 0.06534650921821594, -0.030913008376955986}, {0.045196324586868286, 0.04349726438522339, -0.026977181434631348, 0.07685025781393051, 0.05104788392782211, 0.010469934903085232, 0.027014615014195442, 0.017182277515530586, -0.019849294796586037, -0.0731634572148323, -0.0286425594240427, 0.03889145702123642, 0.03411402553319931, -0.019252657890319824, 0.01439431868493557, 0.04616885259747505, -0.023856209591031075, 0.04670705646276474, 0.10367349535226822, 0.03516703471541405, -0.025103269144892693, -0.050051651895046234, -0.02865026332437992, 0.009829326532781124, -0.06095632165670395, -0.06285253167152405, 0.024715036153793335, -0.014277328737080097, 0.04164977744221687, 0.03547176346182823, -0.02370656095445156, -0.018891258165240288}, {0.07672356069087982, 0.023599009960889816, 0.07464872300624847, -0.07676111161708832, 0.011639352887868881, 0.041292451322078705, 0.019455255940556526, 0.016059087589383125, 0.02073536440730095, 0.012477823533117771, -0.010767875239253044, 0.01761915720999241, -0.013752304948866367, -0.03433837369084358, 0.01597820408642292, -0.07823629677295685, -0.00848319847136736, 0.017733663320541382, 0.026211151853203773, -0.06576831638813019, 0.033589933067560196, -0.015302559360861778, 0.0183478444814682, -0.010410229675471783, 0.0674128457903862, -0.0015178825706243515, -0.04673456400632858, 0.022699499502778053, 0.022055605426430702, 0.09283886104822159, -0.00613339152187109, -0.010064450092613697}, {0.03322229161858559, 0.0403289832174778, 0.010979916900396347, 0.0166387390345335, 0.058017224073410034, 0.029346324503421783, -0.021576471626758575, 0.031009363010525703, 0.025018969550728798, -0.05324386805295944, -0.003375413827598095, 0.06738553196191788, -0.06003531068563461, -0.0016298606060445309, -0.031625401228666306, 0.048803284764289856, 0.036081358790397644, 0.038689762353897095, 0.05246185138821602, -0.023093581199645996, 0.015735724940896034, -0.05085134506225586, -0.012549047358334064, 0.06609687209129333, 0.020807741209864616, 0.06753366440534592, -0.008040916174650192, 0.07336744666099548, 0.03375602513551712, -0.05991683155298233, 0.0075175645761191845, 0.03429018706083298}, {0.0709117129445076, -0.04612445458769798, 0.009541037492454052, -0.0024604324717074633, -0.06105296313762665, 0.048797719180583954, 0.06940152496099472, -0.032484039664268494, 0.00627710809931159, -0.051802877336740494, 0.015606764703989029, 0.0719253197312355, -0.04215968772768974, -0.04813313111662865, -0.03903340548276901, 0.03608538955450058, 0.022033900022506714, 0.044409602880477905, 0.017267508432269096, 0.017992345616221428, 0.014642498455941677, 0.03313726931810379, -0.04464561864733696, 0.02590116672217846, 0.004914519377052784, -0.07907027751207352, 0.010405481792986393, 0.007463594898581505, 0.027108440175652504, 0.01866948790848255, -0.012061262503266335, -0.037681784480810165}, {-0.011431293562054634, 0.01480206847190857, 0.050205059349536896, -0.031166033819317818, -0.00961589440703392, -0.017672184854745865, -0.02184932306408882, -0.007675530854612589, -0.03543097525835037, -0.029603326693177223, 0.03564395010471344, -0.022728271782398224, -0.0432322658598423, 0.02927570790052414, 0.03586389124393463, -0.008674157783389091, -0.048798900097608566, -0.00931600946933031, 0.00020502039114944637, -0.024413354694843292, 0.009464799426496029, 0.055751170963048935, 0.028125058859586716, -0.02138533443212509, 0.04085644334554672, 0.01955827698111534, -0.051783762872219086, -0.027807287871837616, 0.018893949687480927, -0.027392439544200897, 0.0051806108094751835, 0.05105183273553848}, {-0.0028289430774748325, -0.047125786542892456, 0.028305379673838615, -0.07826492935419083, 0.019184453412890434, 0.09133804589509964, -0.0178149975836277, 0.024127285927534103, -0.018647095188498497, -0.08192192018032074, -0.030405540019273758, -0.09062910825014114, -0.07508876174688339, -4.992692265659571e-05, -0.024771178141236305, -0.02190050110220909, -0.01831272430717945, 0.05833965912461281, -0.07332516461610794, 0.012388674542307854, 0.0021104842890053988, -0.04803836718201637, -0.07627774029970169, -0.05427318066358566, 0.020911844447255135, 0.012199847027659416, -0.030705520883202553, -0.003319414099678397, -0.041358157992362976, 0.044725775718688965, 0.02399335242807865, -0.029621215537190437}, {-0.05216054245829582, -0.07344544678926468, 0.007541796192526817, 0.0001358870358671993, -0.009871265850961208, 0.049430329352617264, 0.060788191854953766, 0.013470920734107494, -0.058395564556121826, 0.00624539889395237, 0.006493324413895607, 0.00863299984484911, -0.03085867315530777, 0.014596850611269474, 0.035717930644750595, 0.005598165560513735, 0.04395751655101776, -0.03883164003491402, 0.001612216467037797, -0.02522461861371994, 0.0010206513106822968, -0.00947510078549385, -0.06540036201477051, 0.043366119265556335, 0.030155429616570473, -0.04392985254526138, -0.028155852109193802, 0.05086604133248329, -0.049002379179000854, -0.046432219445705414, 0.003606923157349229, 0.007364732213318348}, {0.008784172125160694, -0.011439910158514977, -0.05409375578165054, 0.060523536056280136, 0.07408203929662704, -0.009267074055969715, 0.02857096679508686, 0.013710682280361652, -0.0993918925523758, 0.03421631082892418, 0.016348691657185555, -0.0379362553358078, 0.05924462527036667, -0.010576297529041767, -0.002562441397458315, 0.023059822618961334, -0.1053861603140831, 0.0677611231803894, 0.015744583681225777, 0.019134005531668663, 0.05494876950979233, 0.0017173746600747108, 0.008363093249499798, 0.025698546320199966, -0.001336694578640163, -0.03704283758997917, -0.08738184720277786, -0.07203859090805054, -0.06299877166748047, 0.020797550678253174, 0.00352696655318141, 0.02081776037812233}, {-0.07878207415342331, -0.12756898999214172, -0.05071357637643814, 0.2075597643852234, -0.10705393552780151, 0.04303821548819542, 0.03463123366236687, 0.07008595019578934, -0.09498274326324463, -0.017763590440154076, -0.0787593200802803, 0.007095253560692072, 0.11137957125902176, 0.0741347000002861, 0.012953342869877815, 0.014146658591926098, -0.06419739127159119, -0.0442260317504406, 0.10154899954795837, 0.05253050848841667, 0.0016852030530571938, 0.029885588213801384, -0.001041194424033165, 0.01975463330745697, -0.0023739468306303024, -0.0252655241638422, -0.06187232956290245, -0.06813104450702667, -0.04121432080864906, -0.06047792360186577, 0.046814847737550735, 0.035163432359695435}, {0.010176033712923527, 0.026264730840921402, 0.037436991930007935, -0.07686678320169449, -0.052842359989881516, 0.05683264508843422, 0.0014423866523429751, 0.020450493320822716, 0.04987663775682449, -0.0657656341791153, 0.002412377158179879, -0.05173050984740257, -0.06391283124685287, -0.031307075172662735, 0.05182360112667084, -0.07550367712974548, -0.03509926050901413, 0.03192272409796715, 0.009291784837841988, -0.040779538452625275, 0.04790566861629486, 0.014266811311244965, -0.015405452810227871, 0.051815636456012726, 0.039388082921504974, -0.07908214628696442, -0.0581941194832325, 0.031143544241786003, 0.0064869835041463375, -0.03845951706171036, -0.07170075923204422, 0.04452965781092644}, {-0.08049862086772919, -0.07891354709863663, -0.018319735303521156, 0.04056936129927635, 0.013259431347250938, 0.05323069542646408, -0.07456982135772705, -0.09491277486085892, -0.10507448017597198, 0.02828875370323658, -0.049571119248867035, -0.04384627193212509, 0.06578417867422104, 0.012073643505573273, -0.047732386738061905, -0.04860870540142059, -0.07465092837810516, -0.06345097720623016, 0.01950182020664215, 0.11011586338281631, 0.04175972938537598, 0.025920942425727844, 0.008099566213786602, -0.06635867804288864, -0.0658373236656189, 0.1154107004404068, 0.05264006182551384, 0.0009173505241051316, -0.03917793929576874, 0.010670218616724014, 0.04931546002626419, 0.006391008384525776}, {-0.03584648668766022, -0.04514987766742706, 0.04100725054740906, -0.05817875638604164, -0.06323981285095215, 0.05455173924565315, 0.0069100866094231606, -0.043634988367557526, 0.04753386229276657, 0.01471805851906538, 0.008855744265019894, 0.012393925338983536, -0.037101536989212036, 0.03329896926879883, -0.022205723449587822, 0.04034567251801491, 0.0605592280626297, 0.012037217617034912, -0.033559300005435944, 0.052856799215078354, -0.0337664820253849, -0.050224419683218, 0.05449821799993515, 0.02001904882490635, -0.019849425181746483, -0.04626365751028061, 0.025123173370957375, 0.05070602893829346, 0.03590230643749237, 0.004213101230561733, -0.012032998725771904, -0.02015572227537632}, {-0.06286373734474182, 0.013101893477141857, -0.01947631686925888, -0.048497606068849564, 0.00014417007332667708, 0.06001168116927147, 0.01679246872663498, 0.033972419798374176, -0.0017805062234401703, -0.014182333834469318, 0.01603764109313488, -0.022383149713277817, -0.004262484610080719, 0.022113142535090446, -0.07848664373159409, 0.009115254506468773, -0.0047358619049191475, -0.03786038979887962, -0.04772696644067764, -0.01949991285800934, -0.03288616985082626, -0.07915451377630234, -0.009516200982034206, -0.053852833807468414, 0.04338191822171211, 0.02483668550848961, 0.02453193999826908, -0.007996389642357826, -0.02640862576663494, 0.0031461138278245926, 0.007277284748852253, 0.016336144879460335}, {-0.025882666930556297, -0.019745858386158943, 0.06469683349132538, -0.035943347960710526, -0.02484077773988247, 0.01746608503162861, -0.022082623094320297, -0.012230516411364079, 0.01845552586019039, -0.07528243958950043, -0.059492308646440506, -0.001654341584071517, -0.06482075899839401, -0.052190717309713364, -0.05411262810230255, 0.034908488392829895, 0.0424618273973465, 0.005595708731561899, -0.030937321484088898, -0.06057832017540932, 0.03407503664493561, 0.036766599863767624, 0.05403663218021393, -0.013941391371190548, 0.03367478772997856, 0.021189352497458458, -0.05147235468029976, 0.0662984848022461, 0.03918228670954704, 0.009085160680115223, -0.042558085173368454, -0.03054371103644371}, {-0.03327042981982231, -0.026158655062317848, 0.010050097480416298, 0.0015640249475836754, 0.07127609103918076, 0.03420060873031616, -0.056390903890132904, -0.002443527104333043, -0.005946047138422728, 0.05218002572655678, 0.060960590839385986, 0.018869519233703613, -0.010040721856057644, 0.008320294320583344, 0.07191415131092072, -0.09912365674972534, -0.045648183673620224, 0.03993697091937065, -0.04161064699292183, -0.03029029257595539, 0.05100785195827484, 0.043920569121837616, -0.007054092362523079, -0.08811493217945099, 0.05893599987030029, 0.017601406201720238, 0.014966357499361038, -0.07526858150959015, -0.01865348592400551, 0.03165430203080177, -0.013129197992384434, -0.023363078013062477}, {-0.012671280652284622, -0.06460738927125931, -0.00179220549762249, 0.014477269724011421, 0.005179328843951225, -0.004523222800344229, -0.030226774513721466, 0.003576800459995866, 0.03921189904212952, -0.0005059003597125411, -0.054875269532203674, -0.013661281205713749, -0.010258607566356659, 0.0050398497842252254, -0.021028758957982063, -0.020793158560991287, 0.020964520052075386, 0.007351139560341835, -0.00459024403244257, -0.052018631249666214, -0.07148600369691849, -0.023846782743930817, 0.014819514937698841, 0.037356678396463394, 0.05441439524292946, 0.04033459722995758, 0.01674487255513668, 0.08516939729452133, 0.04752282053232193, 0.027773339301347733, -0.016756931319832802, -0.012471997179090977}, {0.04872923716902733, -0.02552604302763939, -0.03567449375987053, 0.020000794902443886, 0.07953295111656189, -0.005938891787081957, 0.019145064055919647, 0.002053935080766678, 0.04711828753352165, -0.01593715324997902, 0.014263357035815716, 0.07081888616085052, -0.08173435181379318, -0.049054160714149475, -0.04574446752667427, 0.022319845855236053, -0.002784612588584423, 0.1162371039390564, -0.02507053129374981, 0.0008093737997114658, 0.04809268191456795, 0.05336002632975578, -0.04152541235089302, 0.07145331054925919, -0.011916291899979115, -0.08962155878543854, -0.03361499682068825, 0.009350374341011047, 0.030721431598067284, 0.01426917128264904, -0.022717421874403954, -0.019405456259846687}, {-0.024810025468468666, -0.027859065681695938, -0.03582378476858139, 0.048608388751745224, -0.050732385367155075, 0.037770796567201614, 0.06304678320884705, -0.04874670132994652, 0.03000681661069393, 0.00889978464692831, -0.013464098796248436, 0.01290889922529459, 0.0027600228786468506, 0.03964054584503174, -0.05547028407454491, 0.02642383612692356, 0.03424573689699173, 0.022700240835547447, 0.05794761702418327, -0.03358688950538635, -0.04220271855592728, 0.029043490067124367, -0.014588586054742336, 0.04159233719110489, 0.010202915407717228, 0.0719769224524498, 0.014692246913909912, 0.06293776631355286, -0.008373014628887177, -0.05615784972906113, 0.031246567144989967, 0.024494770914316177}, {-0.029290108010172844, -0.0763884037733078, -0.060401033610105515, 0.018944405019283295, 0.03859103098511696, 0.01167083065956831, -0.0223518218845129, 0.026355307549238205, 0.08295224606990814, -0.01816815882921219, 0.017017928883433342, -0.013377704657614231, 0.043836772441864014, 0.007200291845947504, 0.02407013811171055, 0.051821328699588776, 0.052785202860832214, -0.002658958313986659, 0.05220281332731247, 0.0032635796815156937, 0.010769989341497421, -0.01837552897632122, -0.04337674379348755, 0.04448070749640465, 0.08944182097911835, 0.01187917310744524, 0.016102410852909088, 0.06008964404463768, 0.015532911755144596, -0.014417951926589012, -0.028603646904230118, 0.05898524820804596}, {0.04493133723735809, 0.03850332647562027, 0.052905455231666565, 0.028726749122142792, 0.011428356170654297, 0.08129073679447174, -0.019244423136115074, 0.06339618563652039, -0.030001502484083176, -0.047953370958566666, 0.03789914399385452, 0.04809359833598137, -0.020151494070887566, -0.05165217071771622, -0.007841726765036583, 0.04608895257115364, -0.014949089847505093, 0.050038620829582214, -0.048204805701971054, 0.018969152122735977, -0.0775013118982315, 0.024506371468305588, -0.07346247136592865, 0.043240416795015335, -0.019070658832788467, 0.006121799349784851, -0.03504708781838417, -0.01810154691338539, -0.03171425685286522, 0.0680287554860115, -0.030217261984944344, -0.00019210594473406672}}, {{0.02167510986328125, -0.09075825661420822, -0.04119895398616791, 0.015345314517617226, -0.03508872538805008, -0.07038567960262299, -0.03145105019211769, -0.03892025724053383, 0.04593369737267494, 0.007956196554005146, 0.07266580313444138, 0.03671190142631531, 0.06990830600261688, -0.05042314529418945, 0.03573007136583328, -0.06178886443376541, 0.03679744899272919, 0.04853815212845802, -0.013666941784322262, 0.049379635602235794, 4.237302709952928e-05, -0.09527195990085602, 0.047544579952955246, 0.06625296920537949, 0.013353073969483376, -0.029965292662382126, -0.03511557728052139, -0.058999668806791306, -0.07611721009016037, 0.039702191948890686, -0.059451840817928314, 0.031036457046866417}, {0.019443904981017113, 0.06825953722000122, -0.01680697873234749, -0.02598918415606022, 0.07331588864326477, -0.029741443693637848, 0.013089217245578766, -0.014055433683097363, -0.04544395953416824, 0.06027291342616081, 0.049235694110393524, 0.07232698798179626, -0.08360593020915985, -0.06686123460531235, -0.000572539574932307, 0.04417425021529198, 0.0025736114475876093, 0.05194965377449989, -0.037189166992902756, -0.02006041444838047, 0.027623413130640984, 0.011632528156042099, 